{"learner":{"attributes":{"best_iteration":"66","best_score":"3046.161927207879","scikit_learn":"{\"_estimator_type\": \"regressor\"}"},"feature_names":["rating","stars","breakfast","log_distance","log_review_count","month","day_of_week","is_weekend","stay_length","week_of_year","is_holiday","event_count","high_event_period","city_encoded","price_vs_city_mean"],"feature_types":["float","float","int","float","float","int","int","int","int","int","int","int","int","float","float"],"gradient_booster":{"model":{"cats":{"enc":[],"feature_segments":[],"sorted_idx":[]},"gbtree_model_param":{"num_parallel_tree":"1","num_trees":"97"},"iteration_indptr":[0,1,2,3,4,5,6,7,8,9,10,11,12,13,14,15,16,17,18,19,20,21,22,23,24,25,26,27,28,29,30,31,32,33,34,35,36,37,38,39,40,41,42,43,44,45,46,47,48,49,50,51,52,53,54,55,56,57,58,59,60,61,62,63,64,65,66,67,68,69,70,71,72,73,74,75,76,77,78,79,80,81,82,83,84,85,86,87,88,89,90,91,92,93,94,95,96,97],"tree_info":[0,0,0,0,0,0,0,0,0,0,0,0,0,0,0,0,0,0,0,0,0,0,0,0,0,0,0,0,0,0,0,0,0,0,0,0,0,0,0,0,0,0,0,0,0,0,0,0,0,0,0,0,0,0,0,0,0,0,0,0,0,0,0,0,0,0,0,0,0,0,0,0,0,0,0,0,0,0,0,0,0,0,0,0,0,0,0,0,0,0,0,0,0,0,0,0,0],"trees":[{"base_weights":[-1.6080655E2,-6.244541E2,1.28221164E5,-5.556627E3,6.986864E3,1.7958955E4,6.805127E4,-8.258865E3,-2.3721106E3,4.0510852E3,1.8963354E4,3.5672434E4,1.10948586E5,-9.315686E3,-7.0317695E3,-4.0086921E3,3.8060916E2,7.9396396E3,-2.0811284E3,1.6095157E4,4.2453816E4,2.0572827E3,8.934186E2,6.36147E3,2.3289788E3,-1.0779436E4,-8.976462E3,-2.9369707E3,-8.039155E3,-6.0014126E3,-2.946607E3,3.7905977E3,-5.706937E2,5.953603E3,1.0361526E4,1.9290653E3,-3.430541E3,1.8945984E4,6.813907E3,5.204575E3,3.1280871E4,-3.1595663E2,-5.437386E2,-4.2529428E2,-5.253044E2,-2.2466006E2,3.2946966E0,-3.2401562E2,-4.314449E2,-4.9682056E2,-2.8005603E2,-8.3960945E1,-3.3690668E2,9.675411E1,4.0927585E2,-9.3834335E1,1.1857411E2,9.790687E1,3.4920944E2,5.8323944E2,3.1887878E2,1.2657887E2,-2.5526506E2,-1.859486E2,4.2492E1,1.0265188E3,4.3241992E2,2.4674358E2,8.588929E2,1.2868885E3,2.9336116E3],"categories":[],"categories_nodes":[],"categories_segments":[],"categories_sizes":[],"default_left":[0,0,0,0,0,0,0,0,0,0,0,0,0,0,0,0,0,0,0,0,0,0,0,0,0,0,0,0,0,0,0,0,0,0,0,0,0,0,0,0,0,0,0,0,0,0,0,0,0,0,0,0,0,0,0,0,0,0,0,0,0,0,0,0,0,0,0,0,0,0,0],"id":0,"left_children":[1,3,5,7,9,-1,11,13,15,17,19,21,23,25,27,29,31,33,35,37,39,-1,-1,-1,-1,41,43,45,47,49,51,53,55,57,59,61,63,65,67,-1,69,-1,-1,-1,-1,-1,-1,-1,-1,-1,-1,-1,-1,-1,-1,-1,-1,-1,-1,-1,-1,-1,-1,-1,-1,-1,-1,-1,-1,-1,-1],"loss_changes":[5.789508E11,3.6384217E11,4.619423E11,5.058832E10,1.3391915E11,0E0,3.6322157E10,4.059693E9,1.2169668E10,7.303129E10,4.9848156E10,1.0188083E9,6.649463E9,7.5033805E8,6.064939E9,3.5675648E9,3.272047E9,8.952168E9,6.4407793E9,1.7598595E10,5.252653E10,0E0,0E0,0E0,0E0,6.565069E7,9.118843E8,1.3695291E9,1.03254426E9,8.70529E8,5.3081907E9,1.7782246E9,3.036152E9,4.2357596E9,4.3025695E9,1.2844113E9,1.1019489E9,8.1759273E9,3.01163E9,0E0,9.118208E9,0E0,0E0,0E0,0E0,0E0,0E0,0E0,0E0,0E0,0E0,0E0,0E0,0E0,0E0,0E0,0E0,0E0,0E0,0E0,0E0,0E0,0E0,0E0,0E0,0E0,0E0,0E0,0E0,0E0,0E0],"parents":[2147483647,0,0,1,1,2,2,3,3,4,4,6,6,7,7,8,8,9,9,10,10,11,11,12,12,13,13,14,14,15,15,16,16,17,17,18,18,19,19,20,20,25,25,26,26,27,27,28,28,29,29,30,30,31,31,32,32,33,33,34,34,35,35,36,36,37,37,38,38,40,40],"right_children":[2,4,6,8,10,-1,12,14,16,18,20,22,24,26,28,30,32,34,36,38,40,-1,-1,-1,-1,42,44,46,48,50,52,54,56,58,60,62,64,66,68,-1,70,-1,-1,-1,-1,-1,-1,-1,-1,-1,-1,-1,-1,-1,-1,-1,-1,-1,-1,-1,-1,-1,-1,-1,-1,-1,-1,-1,-1,-1,-1],"split_conditions":[4.151256E0,1.0444595E0,8.5E0,2E0,1.8042693E0,1.7958955E4,3.4E1,5.0108933E-1,3E0,5E0,2.861693E0,4.7000363E-1,8.7E0,2.4916339E-1,5E0,6.335482E-1,7.788626E0,1.3551315E0,1E0,5E0,1.3976194E-1,2.0572827E3,8.934186E2,6.36147E3,2.3289788E3,5.7745514E0,1E0,9.1629076E-1,1E0,3.736376E-1,1E0,7.4145727E0,4E0,1E0,8.777555E0,6.7E1,1.6757691E0,9.162305E0,2.5751157E0,5.204575E3,1E0,-3.1595663E2,-5.437386E2,-4.2529428E2,-5.253044E2,-2.2466006E2,3.2946966E0,-3.2401562E2,-4.314449E2,-4.9682056E2,-2.8005603E2,-8.3960945E1,-3.3690668E2,9.675411E1,4.0927585E2,-9.3834335E1,1.1857411E2,9.790687E1,3.4920944E2,5.8323944E2,3.1887878E2,1.2657887E2,-2.5526506E2,-1.859486E2,4.2492E1,1.0265188E3,4.3241992E2,2.4674358E2,8.588929E2,1.2868885E3,2.9336116E3],"split_indices":[14,14,0,8,14,0,11,14,8,5,14,3,0,14,5,14,4,14,10,5,3,0,0,0,0,4,10,3,10,14,10,4,8,11,4,11,14,4,14,0,2,0,0,0,0,0,0,0,0,0,0,0,0,0,0,0,0,0,0,0,0,0,0,0,0,0,0,0,0,0,0],"split_type":[0,0,0,0,0,0,0,0,0,0,0,0,0,0,0,0,0,0,0,0,0,0,0,0,0,0,0,0,0,0,0,0,0,0,0,0,0,0,0,0,0,0,0,0,0,0,0,0,0,0,0,0,0,0,0,0,0,0,0,0,0,0,0,0,0,0,0,0,0,0,0],"sum_hessian":[9.724E3,9.69E3,3.4E1,5.88E3,3.81E3,6E0,2.8E1,3.18E3,2.7E3,3.061E3,7.49E2,1.7E1,1.1E1,1.705E3,1.475E3,1.693E3,1.007E3,1.873E3,1.188E3,6.69E2,8E1,1.2E1,5E0,8E0,3E0,3.15E2,1.39E3,2.92E2,1.183E3,5.87E2,1.106E3,2.19E2,7.88E2,1.031E3,8.42E2,2.99E2,8.89E2,5.11E2,1.58E2,1.1E1,6.9E1,8E0,3.07E2,1.068E3,3.22E2,1.92E2,1E2,3.28E2,8.55E2,5.2E1,5.35E2,8.3E2,2.76E2,1.55E2,6.4E1,5.46E2,2.42E2,2.12E2,8.19E2,6.33E2,2.09E2,2.76E2,2.3E1,8.33E2,5.6E1,4.42E2,6.9E1,1.35E2,2.3E1,5.9E1,1E1],"tree_param":{"num_deleted":"0","num_feature":"15","num_nodes":"71","size_leaf_vector":"1"}},{"base_weights":[2.1660357E1,-4.3610513E3,8.625588E3,-7.462047E3,-1.1370989E3,4.6308276E3,2.9070791E4,-8.09287E3,-2.2812095E3,-4.467419E3,2.5620498E3,5.7835895E2,1.0994697E4,2.1219982E4,9.805758E4,-9.332429E3,-6.9037393E3,-4.9748726E3,1.5410417E3,-6.708083E3,-3.435674E3,1.4599867E3,1.9159533E4,-2.368444E3,2.8997551E3,6.009413E3,1.4217558E4,1.8939271E4,5.49599E3,3.362411E4,2.8435384E5,-1.0245249E4,-8.797654E3,-7.10974E3,4.2608813E3,-1.8645033E3,-6.3072983E3,4.9192397E3,-3.4684456E3,-5.5774014E3,-7.630951E3,-4.042742E3,2.2320598E3,-4.1004944E1,6.0576978E3,7.679629E3,5.8700164E4,-3.0945125E3,7.197327E3,2.0396031E3,1.3827783E4,1.0522164E4,3.8028562E3,1.2896045E4,2.8099133E4,3.4837152E4,1.1938874E4,1.6679605E4,2.8780671E3,2.1198693E4,6.3321055E3,-3.7272766E2,-5.167475E2,-4.5408136E2,-3.0096518E2,-4.2388272E2,-3.2061716E2,-7.907072E1,8.38517E2,2.8408838E1,-2.8897614E2,-2.451846E2,-4.5215402E2,5.0737833E2,-5.157156E1,-2.71038E2,4.0241577E1,-3.0467685E2,-5.37494E1,-3.9263803E2,-1.9337708E2,-2.2224295E2,1.7897076E1,3.59117E1,5.32471E2,-1.1225459E2,5.3519142E1,4.4645538E2,-1.482805E2,6.286985E2,-1.7430977E1,9.08722E2,6.1141323E3,-2.787939E2,-9.0327126E1,1.7968063E3,2.0589551E2,-9.339406E0,2.2117957E2,8.95299E2,2.717537E2,1.4579765E2,7.517443E2,8.654512E1,2.9982562E2,4.4080923E2,8.285513E2,1.7035677E3,1.2429229E3,2.6932175E3,1.5013497E3,4.066344E2,1.0045016E3,1.3497416E3,5.7292365E2],"categories":[],"categories_nodes":[],"categories_segments":[],"categories_sizes":[],"default_left":[0,0,0,0,0,0,0,0,0,0,0,0,0,0,0,0,0,0,0,0,0,0,0,0,0,0,0,0,0,0,0,0,0,0,0,0,0,0,0,0,0,0,0,0,0,0,0,0,0,0,0,0,0,0,0,0,0,0,0,0,0,0,0,0,0,0,0,0,0,0,0,0,0,0,0,0,0,0,0,0,0,0,0,0,0,0,0,0,0,0,0,0,0,0,0,0,0,0,0,0,0,0,0,0,0,0,0,0,0,0,0,0,0,0,0],"id":1,"left_children":[1,3,5,7,9,11,13,15,17,19,21,23,25,27,29,31,33,35,37,39,41,43,45,47,49,51,53,55,-1,57,59,61,63,65,67,69,71,73,75,77,79,81,83,85,87,89,91,93,95,97,99,101,103,105,107,109,111,113,-1,-1,-1,-1,-1,-1,-1,-1,-1,-1,-1,-1,-1,-1,-1,-1,-1,-1,-1,-1,-1,-1,-1,-1,-1,-1,-1,-1,-1,-1,-1,-1,-1,-1,-1,-1,-1,-1,-1,-1,-1,-1,-1,-1,-1,-1,-1,-1,-1,-1,-1,-1,-1,-1,-1,-1,-1],"loss_changes":[3.6995832E11,6.4975036E10,2.7028696E11,1.0809033E10,3.928553E10,7.1456014E10,2.9092594E11,4.288299E9,3.7244713E9,3.8561423E9,2.7610444E10,1.1595009E10,1.723465E10,9.64376E10,6.5064305E11,6.1426074E8,3.505488E9,8.668385E8,2.5555182E9,5.0839142E8,3.9692687E9,9.786044E9,4.2217923E10,5.2104883E9,8.882773E9,4.1919826E9,1.163504E10,5.2558823E10,0E0,1.6075289E10,2.5458285E11,5.487821E7,6.6882765E8,1.3613384E9,2.0728735E9,6.223436E8,5.23968E8,2.8105523E9,5.1327302E8,5.534981E8,2.1003878E8,1.841964E9,1.4195008E9,2.62347E9,9.068937E9,2.9120655E9,5.1888816E10,2.211093E9,4.542447E9,4.671594E9,2.2643497E9,4.727293E9,1.294079E9,8.834957E9,2.368594E8,1.1653562E10,1.013685E10,1.0909624E9,0E0,0E0,0E0,0E0,0E0,0E0,0E0,0E0,0E0,0E0,0E0,0E0,0E0,0E0,0E0,0E0,0E0,0E0,0E0,0E0,0E0,0E0,0E0,0E0,0E0,0E0,0E0,0E0,0E0,0E0,0E0,0E0,0E0,0E0,0E0,0E0,0E0,0E0,0E0,0E0,0E0,0E0,0E0,0E0,0E0,0E0,0E0,0E0,0E0,0E0,0E0,0E0,0E0,0E0,0E0,0E0,0E0],"parents":[2147483647,0,0,1,1,2,2,3,3,4,4,5,5,6,6,7,7,8,8,9,9,10,10,11,11,12,12,13,13,14,14,15,15,16,16,17,17,18,18,19,19,20,20,21,21,22,22,23,23,24,24,25,25,26,26,27,27,29,29,30,30,31,31,32,32,33,33,34,34,35,35,36,36,37,37,38,38,39,39,40,40,41,41,42,42,43,43,44,44,45,45,46,46,47,47,48,48,49,49,50,50,51,51,52,52,53,53,54,54,55,55,56,56,57,57],"right_children":[2,4,6,8,10,12,14,16,18,20,22,24,26,28,30,32,34,36,38,40,42,44,46,48,50,52,54,56,-1,58,60,62,64,66,68,70,72,74,76,78,80,82,84,86,88,90,92,94,96,98,100,102,104,106,108,110,112,114,-1,-1,-1,-1,-1,-1,-1,-1,-1,-1,-1,-1,-1,-1,-1,-1,-1,-1,-1,-1,-1,-1,-1,-1,-1,-1,-1,-1,-1,-1,-1,-1,-1,-1,-1,-1,-1,-1,-1,-1,-1,-1,-1,-1,-1,-1,-1,-1,-1,-1,-1,-1,-1,-1,-1,-1,-1],"split_conditions":[3E0,2E0,2.1674785E4,2.3309557E4,1.3515845E4,1.4292267E4,5E0,1.2204684E4,8.6E0,9.755667E3,5E0,1.0103786E4,8.5E0,9.2E0,1E0,9.755667E3,9.4E0,9.1629076E-1,5E0,8.7546873E-1,5E0,2.3309557E4,1E0,9.3E0,5E0,9.1629076E-1,5E0,2E0,5.49599E3,8.8E0,8.5E0,2.6236427E-1,5E0,4E0,1E0,1.1E1,1E0,8.151045E0,8.7217655E0,8E0,2.4765384E0,4E1,8E0,4E0,1E0,1E0,7.1196356E0,8.6E0,6.340359E0,4E0,8.205765E0,4E0,4E0,4E0,6.7141705E0,1.0296195E0,4E1,8.1E0,2.8780671E3,2.1198693E4,6.3321055E3,-3.7272766E2,-5.167475E2,-4.5408136E2,-3.0096518E2,-4.2388272E2,-3.2061716E2,-7.907072E1,8.38517E2,2.8408838E1,-2.8897614E2,-2.451846E2,-4.5215402E2,5.0737833E2,-5.157156E1,-2.71038E2,4.0241577E1,-3.0467685E2,-5.37494E1,-3.9263803E2,-1.9337708E2,-2.2224295E2,1.7897076E1,3.59117E1,5.32471E2,-1.1225459E2,5.3519142E1,4.4645538E2,-1.482805E2,6.286985E2,-1.7430977E1,9.08722E2,6.1141323E3,-2.787939E2,-9.0327126E1,1.7968063E3,2.0589551E2,-9.339406E0,2.2117957E2,8.95299E2,2.717537E2,1.4579765E2,7.517443E2,8.654512E1,2.9982562E2,4.4080923E2,8.285513E2,1.7035677E3,1.2429229E3,2.6932175E3,1.5013497E3,4.066344E2,1.0045016E3,1.3497416E3,5.7292365E2],"split_indices":[8,8,13,13,13,13,1,13,0,13,1,13,0,0,2,13,0,3,5,3,1,13,2,0,1,3,1,11,0,0,0,3,1,1,10,11,10,4,4,11,3,11,11,1,10,10,4,0,4,8,4,1,8,8,4,3,11,0,0,0,0,0,0,0,0,0,0,0,0,0,0,0,0,0,0,0,0,0,0,0,0,0,0,0,0,0,0,0,0,0,0,0,0,0,0,0,0,0,0,0,0,0,0,0,0,0,0,0,0,0,0,0,0,0,0],"split_type":[0,0,0,0,0,0,0,0,0,0,0,0,0,0,0,0,0,0,0,0,0,0,0,0,0,0,0,0,0,0,0,0,0,0,0,0,0,0,0,0,0,0,0,0,0,0,0,0,0,0,0,0,0,0,0,0,0,0,0,0,0,0,0,0,0,0,0,0,0,0,0,0,0,0,0,0,0,0,0,0,0,0,0,0,0,0,0,0,0,0,0,0,0,0,0,0,0,0,0,0,0,0,0,0,0,0,0,0,0,0,0,0,0,0,0],"sum_hessian":[9.809E3,6.499E3,3.31E3,3.312E3,3.187E3,2.77E3,5.4E2,2.952E3,3.6E2,1.677E3,1.51E3,1.693E3,1.077E3,4.86E2,5.4E1,1.442E3,1.51E3,2.11E2,1.49E2,5.27E2,1.15E3,1.417E3,9.3E1,7.46E2,9.47E2,4.24E2,6.53E2,4.75E2,1.1E1,4.1E1,1.3E1,5.26E2,9.16E2,1.483E3,2.7E1,6.4E1,1.47E2,8.9E1,6E1,2.4E2,2.87E2,1.039E3,1.11E2,1.069E3,3.48E2,7.3E1,2E1,6.94E2,5.2E1,8.79E2,6.8E1,1.38E2,2.86E2,5.98E2,5.5E1,1.44E2,3.31E2,2.5E1,1.6E1,6E0,7E0,1.9E1,5.07E2,8.29E2,8.7E1,4.97E2,9.86E2,1.9E1,8E0,4E1,2.4E1,9.9E1,4.8E1,4.7E1,4.2E1,4.1E1,1.9E1,2.15E2,2.5E1,2.7E2,1.7E1,9.52E2,8.7E1,9.5E1,1.6E1,3.58E2,7.11E2,2.64E2,8.4E1,4.5E1,2.8E1,1.3E1,7E0,2.36E2,4.58E2,4E0,4.8E1,4.55E2,4.24E2,4.5E1,2.3E1,5.2E1,8.6E1,1.48E2,1.38E2,2.85E2,3.13E2,1.6E1,3.9E1,2.7E1,1.17E2,2.27E2,1.04E2,7E0,1.8E1],"tree_param":{"num_deleted":"0","num_feature":"15","num_nodes":"115","size_leaf_vector":"1"}},{"base_weights":[-1.1173725E1,-9.1602374E2,6.960445E4,-5.0748066E3,5.626127E3,3.0116975E4,1.702832E5,-6.5530405E3,-7.607222E1,8.483628E2,1.2490105E4,1.2165129E4,3.243329E4,1.760879E4,1.03345555E5,-8.40267E3,-4.3709897E3,-4.6806567E3,4.211064E3,-8.4222437E2,7.3705225E3,1.8437326E4,9.5840845E2,8.402878E2,-6.58768E1,3.5386766E4,2.2450332E4,3.2759443E3,5.551661E3,-9.193497E3,-6.9943154E3,-6.0536304E3,-2.1935457E3,-3.1260112E3,-7.5501704E3,2.5280786E3,1.1804504E4,5.5012244E2,-3.993531E3,4.91942E3,1.0812404E4,1.503122E4,4.143083E4,-1.223672E3,6.936698E3,3.0434928E4,2.1014753E3,9.093792E2,1.5037963E3,-5.060816E2,-4.246169E2,-4.3450708E2,-3.1704684E2,-3.408685E2,-2.2868352E2,-1.9236769E1,-2.9721524E2,-2.396894E2,1.9771526E2,-3.897917E2,7.4661536E0,-6.784491E1,2.4745036E2,7.832525E2,-3.0825565E2,-1.2969464E2,1.0558929E2,-2.9594504E2,-1.2876778E2,1.4701175E2,4.046108E2,3.9817856E2,7.0854144E2,5.3967145E2,1.2180671E3,1.6707871E3,2.767032E3,1.6218027E2,-1.1413456E2,2.7433868E2,9.326808E2,9.90196E2,1.7016298E3],"categories":[],"categories_nodes":[],"categories_segments":[],"categories_sizes":[],"default_left":[0,0,0,0,0,0,0,0,0,0,0,0,0,0,0,0,0,0,0,0,0,0,0,0,0,0,0,0,0,0,0,0,0,0,0,0,0,0,0,0,0,0,0,0,0,0,0,0,0,0,0,0,0,0,0,0,0,0,0,0,0,0,0,0,0,0,0,0,0,0,0,0,0,0,0,0,0,0,0,0,0,0,0],"id":2,"left_children":[1,3,5,7,9,11,13,15,17,19,21,23,25,-1,27,29,31,33,35,37,39,41,43,-1,-1,45,47,-1,-1,49,51,53,55,57,59,61,63,65,67,69,71,73,75,77,79,81,-1,-1,-1,-1,-1,-1,-1,-1,-1,-1,-1,-1,-1,-1,-1,-1,-1,-1,-1,-1,-1,-1,-1,-1,-1,-1,-1,-1,-1,-1,-1,-1,-1,-1,-1,-1,-1],"loss_changes":[6.136659E11,2.6168195E11,4.9181537E11,4.3448582E10,1.2257513E11,3.3894072E9,3.8974528E11,1.8278564E10,2.6531174E10,2.4319156E10,1.0518644E11,7.729599E8,1.5643116E9,0E0,5.7678234E8,2.6700022E9,7.6222013E9,2.8671754E9,8.864791E9,7.6894684E9,3.776936E9,7.86354E10,6.8310815E9,0E0,0E0,6.944604E8,1.3561344E8,0E0,0E0,9.350922E8,9.2770714E8,1.2969247E9,6.1715277E9,5.002096E9,4.305326E8,5.377113E9,8.837517E9,5.9759073E9,1.4510403E9,1.6528461E9,1.6858542E9,3.465008E10,1.2644221E10,1.8240819E9,2.2760607E9,7.793951E8,0E0,0E0,0E0,0E0,0E0,0E0,0E0,0E0,0E0,0E0,0E0,0E0,0E0,0E0,0E0,0E0,0E0,0E0,0E0,0E0,0E0,0E0,0E0,0E0,0E0,0E0,0E0,0E0,0E0,0E0,0E0,0E0,0E0,0E0,0E0,0E0,0E0],"parents":[2147483647,0,0,1,1,2,2,3,3,4,4,5,5,6,6,7,7,8,8,9,9,10,10,11,11,12,12,14,14,15,15,16,16,17,17,18,18,19,19,20,20,21,21,22,22,25,25,26,26,29,29,30,30,31,31,32,32,33,33,34,34,35,35,36,36,37,37,38,38,39,39,40,40,41,41,42,42,43,43,44,44,45,45],"right_children":[2,4,6,8,10,12,14,16,18,20,22,24,26,-1,28,30,32,34,36,38,40,42,44,-1,-1,46,48,-1,-1,50,52,54,56,58,60,62,64,66,68,70,72,74,76,78,80,82,-1,-1,-1,-1,-1,-1,-1,-1,-1,-1,-1,-1,-1,-1,-1,-1,-1,-1,-1,-1,-1,-1,-1,-1,-1,-1,-1,-1,-1,-1,-1,-1,-1,-1,-1,-1,-1],"split_conditions":[2.861693E0,1.0444595E0,2.1674785E4,1.8708762E4,1.4862044E4,9.755667E3,7.71913E0,6.392002E-1,2E0,1.7488306E0,5E0,5E0,5E0,1.760879E4,3E0,1.3515845E4,1.2204684E4,1E0,3.0881756E4,1E0,1.1E1,3.0881756E4,1.5731094E0,8.402878E2,-6.58768E1,4.151256E0,1E0,3.2759443E3,5.551661E3,4.1153228E-1,3.5313466E-1,8.876139E-1,5E0,3.0881756E4,9.049835E-1,6.230217E-1,5E0,1.0103786E4,9.755667E3,2.1452708E0,2.1047094E0,1.6271558E0,1.428349E0,1E0,2.5751157E0,5.877867E-1,2.1014753E3,9.093792E2,1.5037963E3,-5.060816E2,-4.246169E2,-4.3450708E2,-3.1704684E2,-3.408685E2,-2.2868352E2,-1.9236769E1,-2.9721524E2,-2.396894E2,1.9771526E2,-3.897917E2,7.4661536E0,-6.784491E1,2.4745036E2,7.832525E2,-3.0825565E2,-1.2969464E2,1.0558929E2,-2.9594504E2,-1.2876778E2,1.4701175E2,4.046108E2,3.9817856E2,7.0854144E2,5.3967145E2,1.2180671E3,1.6707871E3,2.767032E3,1.6218027E2,-1.1413456E2,2.7433868E2,9.326808E2,9.90196E2,1.7016298E3],"split_indices":[14,14,13,13,13,13,4,14,8,14,5,1,5,0,8,13,13,10,13,10,11,13,14,0,0,14,2,0,0,14,14,14,5,13,14,14,5,13,13,14,14,14,14,10,14,3,0,0,0,0,0,0,0,0,0,0,0,0,0,0,0,0,0,0,0,0,0,0,0,0,0,0,0,0,0,0,0,0,0,0,0,0,0],"split_type":[0,0,0,0,0,0,0,0,0,0,0,0,0,0,0,0,0,0,0,0,0,0,0,0,0,0,0,0,0,0,0,0,0,0,0,0,0,0,0,0,0,0,0,0,0,0,0,0,0,0,0,0,0,0,0,0,0,0,0,0,0,0,0,0,0,0,0,0,0,0,0,0,0,0,0,0,0,0,0,0,0,0,0],"sum_hessian":[9.74E3,9.616E3,1.24E2,5.879E3,3.737E3,9E1,3.4E1,4.537E3,1.342E3,2.204E3,1.533E3,1.1E1,7.9E1,8E0,2.6E1,2.454E3,2.083E3,6.47E2,6.95E2,1.751E3,4.53E2,1.011E3,5.22E2,8E0,3E0,5.9E1,2E1,6E0,2E1,1.568E3,8.86E2,1.174E3,9.09E2,4.21E2,2.26E2,5.7E2,1.25E2,1.215E3,5.36E2,2.66E2,1.87E2,8.82E2,1.29E2,3.83E2,1.39E2,3.7E1,2.2E1,1.5E1,5E0,6.69E2,8.99E2,2.43E2,6.43E2,7.72E2,4.02E2,6.14E2,2.95E2,3.41E2,8E1,2.19E2,7E0,2.19E2,3.51E2,1.03E2,2.2E1,4.03E2,8.12E2,2.26E2,3.1E2,1.65E2,1.01E2,1.03E2,8.4E1,6.08E2,2.74E2,8.4E1,4.5E1,7.3E1,3.1E2,1.25E2,1.4E1,1.1E1,2.6E1],"tree_param":{"num_deleted":"0","num_feature":"15","num_nodes":"83","size_leaf_vector":"1"}},{"base_weights":[-7.302334E1,-6.502801E2,1.1951894E5,-4.832984E3,5.9654834E3,1.7560244E4,5.5403707E4,-7.102084E3,-2.2017388E3,3.221668E3,1.6252463E4,3.1947268E4,8.924043E4,-7.6334536E3,-5.1006973E3,-4.9139316E3,-1.1118967E3,6.4452666E3,-1.8746866E3,1.3763153E4,3.9588797E4,1.9042631E3,8.742785E2,5.775765E3,2.1354902E3,-8.785134E3,-7.2042983E3,5.270609E2,-6.057452E3,-7.9839536E3,-4.458749E3,-2.1481917E2,-5.497563E3,4.738719E3,8.616163E3,-2.9339324E3,3.7162766E2,1.5730437E4,6.503293E3,4.5663677E3,2.8460824E4,-4.9143967E2,-4.1898935E2,-3.0533524E2,-4.0809164E2,1.6767699E2,-1.0460651E2,7.4242616E0,-3.0835834E2,-4.6219064E2,-3.538655E2,-2.504681E2,-1.2983266E2,-7.364717E1,6.1755615E1,-3.3782538E2,-2.3176025E2,6.412377E1,2.8552E2,4.9405167E2,2.8919028E2,-1.06122025E2,-3.057757E2,3.11007E2,-4.5717278E1,9.8919696E2,6.524604E2,2.4127449E2,7.517424E2,1.1336182E3,2.4712683E3],"categories":[],"categories_nodes":[],"categories_segments":[],"categories_sizes":[],"default_left":[0,0,0,0,0,0,0,0,0,0,0,0,0,0,0,0,0,0,0,0,0,0,0,0,0,0,0,0,0,0,0,0,0,0,0,0,0,0,0,0,0,0,0,0,0,0,0,0,0,0,0,0,0,0,0,0,0,0,0,0,0,0,0,0,0,0,0,0,0,0,0],"id":3,"left_children":[1,3,5,7,9,-1,11,13,15,17,19,21,23,25,27,29,31,33,35,37,39,-1,-1,-1,-1,41,43,45,47,49,51,53,55,57,59,61,63,65,67,-1,69,-1,-1,-1,-1,-1,-1,-1,-1,-1,-1,-1,-1,-1,-1,-1,-1,-1,-1,-1,-1,-1,-1,-1,-1,-1,-1,-1,-1,-1,-1],"loss_changes":[6.7544973E11,2.6946893E11,6.78708E11,3.5604726E10,1.0641453E11,0E0,2.7309179E10,3.3673708E9,8.1645363E9,4.8952893E10,4.5579665E10,1.4644326E9,1.3405143E10,1.1866604E9,3.6376535E9,1.07115725E9,7.7611587E9,6.7203154E9,2.7492966E9,1.0166608E10,4.115736E10,0E0,0E0,0E0,0E0,2.0615168E8,1.8923766E9,7.3992186E8,3.9378125E8,4.9944064E7,6.964941E8,2.991673E9,3.323781E8,3.431639E9,2.8160655E9,2.0137544E9,2.79599E9,5.882462E9,2.1461591E9,0E0,6.6459607E9,0E0,0E0,0E0,0E0,0E0,0E0,0E0,0E0,0E0,0E0,0E0,0E0,0E0,0E0,0E0,0E0,0E0,0E0,0E0,0E0,0E0,0E0,0E0,0E0,0E0,0E0,0E0,0E0,0E0,0E0],"parents":[2147483647,0,0,1,1,2,2,3,3,4,4,6,6,7,7,8,8,9,9,10,10,11,11,12,12,13,13,14,14,15,15,16,16,17,17,18,18,19,19,20,20,25,25,26,26,27,27,28,28,29,29,30,30,31,31,32,32,33,33,34,34,35,35,36,36,37,37,38,38,40,40],"right_children":[2,4,6,8,10,-1,12,14,16,18,20,22,24,26,28,30,32,34,36,38,40,-1,-1,-1,-1,42,44,46,48,50,52,54,56,58,60,62,64,66,68,-1,70,-1,-1,-1,-1,-1,-1,-1,-1,-1,-1,-1,-1,-1,-1,-1,-1,-1,-1,-1,-1,-1,-1,-1,-1,-1,-1,-1,-1,-1,-1],"split_conditions":[4.151256E0,1.0444595E0,8.5E0,2E0,1.7683489E0,1.7560244E4,3.4E1,6.642103E-1,6.335482E-1,5E0,2.861693E0,4.7000363E-1,8.7E0,3.2217163E-1,5E0,3.9459482E-1,5E0,1.3551315E0,8E0,5E0,1.3976194E-1,1.9042631E3,8.742785E2,5.775765E3,2.1354902E3,2.1919186E-1,5E0,7.1761477E-1,1.3976194E-1,4E0,3E0,8.568516E-1,8.605351E-1,1E0,8.9E0,7E0,1.5E1,8.7E0,2.5751157E0,4.5663677E3,1E0,-4.9143967E2,-4.1898935E2,-3.0533524E2,-4.0809164E2,1.6767699E2,-1.0460651E2,7.4242616E0,-3.0835834E2,-4.6219064E2,-3.538655E2,-2.504681E2,-1.2983266E2,-7.364717E1,6.1755615E1,-3.3782538E2,-2.3176025E2,6.412377E1,2.8552E2,4.9405167E2,2.8919028E2,-1.06122025E2,-3.057757E2,3.11007E2,-4.5717278E1,9.8919696E2,6.524604E2,2.4127449E2,7.517424E2,1.1336182E3,2.4712683E3],"split_indices":[14,14,0,8,14,0,11,14,14,5,14,3,0,14,5,14,5,14,11,5,3,0,0,0,0,14,5,14,3,11,8,14,14,11,0,11,11,0,14,0,2,0,0,0,0,0,0,0,0,0,0,0,0,0,0,0,0,0,0,0,0,0,0,0,0,0,0,0,0,0,0],"split_type":[0,0,0,0,0,0,0,0,0,0,0,0,0,0,0,0,0,0,0,0,0,0,0,0,0,0,0,0,0,0,0,0,0,0,0,0,0,0,0,0,0,0,0,0,0,0,0,0,0,0,0,0,0,0,0,0,0,0,0,0,0,0,0,0,0,0,0,0,0,0,0],"sum_hessian":[9.782E3,9.736E3,4.6E1,5.965E3,3.771E3,9E0,3.7E1,3.202E3,2.763E3,2.978E3,7.93E2,2.3E1,1.4E1,2.528E3,6.74E2,7.91E2,1.972E3,1.824E3,1.154E3,7.18E2,7.5E1,1.5E1,8E0,8E0,6E0,6.81E2,1.847E3,9.8E1,5.76E2,1E2,6.91E2,1.638E3,3.34E2,1.023E3,8.01E2,7.84E2,3.7E2,5.64E2,1.54E2,1.2E1,6.3E1,1.84E2,4.97E2,8.64E2,9.83E2,4.7E1,5.1E1,1E1,5.66E2,3.8E1,6.2E1,5.32E2,1.59E2,8.77E2,7.61E2,1.33E2,2.01E2,2.25E2,7.98E2,5.52E2,2.49E2,6.26E2,1.58E2,6.6E1,3.04E2,2.22E2,3.42E2,1.3E2,2.4E1,5.1E1,1.2E1],"tree_param":{"num_deleted":"0","num_feature":"15","num_nodes":"71","size_leaf_vector":"1"}},{"base_weights":[5.8630222E1,-5.228798E2,1.2518537E5,-4.582054E3,5.79534E3,3.4725303E5,5.1815938E4,-6.789036E3,-2.0096111E3,3.398533E3,1.6745158E4,9.054949E3,1.934617E4,2.8623326E4,8.886317E4,-7.705214E3,-5.70058E3,-3.3240154E3,2.1725084E2,6.4155264E3,-1.5053577E3,1.3902269E4,3.8827758E4,1.7485775E3,8.436735E2,5.5190645E3,1.6178951E3,-9.010891E3,-7.3968784E3,-2.305296E3,-6.584947E3,-5.1522363E3,-2.341399E3,-4.5361255E3,8.3171515E2,4.629129E3,8.558402E3,1.5922217E3,-2.5618777E3,1.6701922E4,5.5405317E3,8.530086E4,2.714642E4,-2.831331E2,-4.533481E2,-3.4922598E2,-4.3814487E2,-1.7098303E2,2.464767E0,-2.587269E2,-3.545323E2,-4.2359235E2,-2.4069336E2,-6.0600246E1,-2.8789114E2,-2.8833914E2,-1.4272824E2,-1.2060208E1,1.876597E2,7.26358E1,2.7755197E2,4.8077246E2,2.6568622E2,1.0754413E2,-2.2104507E2,-1.3556706E2,4.7732745E2,9.0872675E2,2.9819495E2,1.939841E2,7.379629E2,1.7307285E3,4.754394E3,5.5424963E2,1.6915051E3],"categories":[],"categories_nodes":[],"categories_segments":[],"categories_sizes":[],"default_left":[0,0,0,0,0,0,0,0,0,0,0,0,0,0,0,0,0,0,0,0,0,0,0,0,0,0,0,0,0,0,0,0,0,0,0,0,0,0,0,0,0,0,0,0,0,0,0,0,0,0,0,0,0,0,0,0,0,0,0,0,0,0,0,0,0,0,0,0,0,0,0,0,0,0,0],"id":4,"left_children":[1,3,5,7,9,11,13,15,17,19,21,-1,-1,23,25,27,29,31,33,35,37,39,41,-1,-1,-1,-1,43,45,47,49,51,53,55,57,59,61,63,65,67,69,71,73,-1,-1,-1,-1,-1,-1,-1,-1,-1,-1,-1,-1,-1,-1,-1,-1,-1,-1,-1,-1,-1,-1,-1,-1,-1,-1,-1,-1,-1,-1,-1,-1],"loss_changes":[7.078258E11,2.4836407E11,7.151906E11,3.345993E10,9.935763E10,2.433876E9,2.75292E10,3.120251E9,7.9738624E9,4.600732E10,4.2149495E10,0E0,0E0,1.1254907E9,1.2234809E10,6.257951E8,4.35071E9,3.0652355E9,2.959602E9,7.3293414E9,3.8821747E9,1.4047085E10,3.948521E10,0E0,0E0,0E0,0E0,9.486336E6,7.257129E8,7.9257856E8,7.8567424E8,6.3092224E8,4.299094E9,2.2359066E8,2.812562E9,3.0725796E9,2.9465272E9,1.0240162E9,1.6257157E9,7.039058E9,2.285308E9,4.1495757E9,6.388007E9,0E0,0E0,0E0,0E0,0E0,0E0,0E0,0E0,0E0,0E0,0E0,0E0,0E0,0E0,0E0,0E0,0E0,0E0,0E0,0E0,0E0,0E0,0E0,0E0,0E0,0E0,0E0,0E0,0E0,0E0,0E0,0E0],"parents":[2147483647,0,0,1,1,2,2,3,3,4,4,5,5,6,6,7,7,8,8,9,9,10,10,13,13,14,14,15,15,16,16,17,17,18,18,19,19,20,20,21,21,22,22,27,27,28,28,29,29,30,30,31,31,32,32,33,33,34,34,35,35,36,36,37,37,38,38,39,39,40,40,41,41,42,42],"right_children":[2,4,6,8,10,12,14,16,18,20,22,-1,-1,24,26,28,30,32,34,36,38,40,42,-1,-1,-1,-1,44,46,48,50,52,54,56,58,60,62,64,66,68,70,72,74,-1,-1,-1,-1,-1,-1,-1,-1,-1,-1,-1,-1,-1,-1,-1,-1,-1,-1,-1,-1,-1,-1,-1,-1,-1,-1,-1,-1,-1,-1,-1,-1],"split_conditions":[4.151256E0,1.0444595E0,8.5E0,2E0,1.865966E0,3E0,3.4E1,5.0108933E-1,3E0,5E0,2.861693E0,9.054949E3,1.934617E4,4.7000363E-1,8.7E0,2.4916339E-1,5E0,6.335482E-1,3E0,1.3551315E0,1E0,5E0,1.3976194E-1,1.7485775E3,8.436735E2,5.5190645E3,1.6178951E3,5.7745514E0,1E0,6.642103E-1,1E0,3.736376E-1,1E0,7.102241E-1,4E0,1E0,8.777555E0,6.7E1,1.7488306E0,9.162305E0,2.5751157E0,9.1E0,5.877867E-1,-2.831331E2,-4.533481E2,-3.4922598E2,-4.3814487E2,-1.7098303E2,2.464767E0,-2.587269E2,-3.545323E2,-4.2359235E2,-2.4069336E2,-6.0600246E1,-2.8789114E2,-2.8833914E2,-1.4272824E2,-1.2060208E1,1.876597E2,7.26358E1,2.7755197E2,4.8077246E2,2.6568622E2,1.0754413E2,-2.2104507E2,-1.3556706E2,4.7732745E2,9.0872675E2,2.9819495E2,1.939841E2,7.379629E2,1.7307285E3,4.754394E3,5.5424963E2,1.6915051E3],"split_indices":[14,14,0,8,14,8,11,14,8,5,14,0,0,3,0,14,5,14,1,14,10,5,3,0,0,0,0,4,10,14,10,14,10,14,8,11,4,11,14,4,14,0,3,0,0,0,0,0,0,0,0,0,0,0,0,0,0,0,0,0,0,0,0,0,0,0,0,0,0,0,0,0,0,0,0],"split_type":[0,0,0,0,0,0,0,0,0,0,0,0,0,0,0,0,0,0,0,0,0,0,0,0,0,0,0,0,0,0,0,0,0,0,0,0,0,0,0,0,0,0,0,0,0,0,0,0,0,0,0,0,0,0,0,0,0,0,0,0,0,0,0,0,0,0,0,0,0,0,0,0,0,0,0],"sum_hessian":[9.726E3,9.682E3,4.4E1,5.895E3,3.787E3,1E1,3.4E1,3.172E3,2.723E3,3.108E3,6.79E2,3E0,7E0,2.2E1,1.2E1,1.719E3,1.453E3,1.712E3,1.011E3,1.924E3,1.184E3,6.03E2,7.6E1,1.3E1,9E0,8E0,4E0,3.23E2,1.396E3,3.01E2,1.152E3,5.97E2,1.115E3,1.15E2,8.96E2,1.051E3,8.73E2,3.01E2,8.83E2,4.51E2,1.52E2,1.4E1,6.2E1,7E0,3.16E2,1.077E3,3.19E2,2.04E2,9.7E1,3.07E2,8.45E2,5.3E1,5.44E2,8.39E2,2.76E2,6.5E1,5E1,6.56E2,2.4E2,2.37E2,8.14E2,6.57E2,2.16E2,2.76E2,2.5E1,8.73E2,1E1,3.96E2,5.5E1,1.3E2,2.2E1,3E0,1.1E1,1.9E1,4.3E1],"tree_param":{"num_deleted":"0","num_feature":"15","num_nodes":"75","size_leaf_vector":"1"}},{"base_weights":[7.428503E0,-6.529798E2,7.837042E4,-4.3298706E3,5.1034214E3,2.997341E4,1.6578658E5,-5.760951E3,4.0101837E2,3.1561921E3,2.1612904E4,2.3861035E4,3.917139E4,1.5357413E4,9.73084E4,-7.3605747E3,-3.8991982E3,-3.7074028E3,4.2607554E3,-1.504477E1,7.667463E3,3.3678617E4,3.112811E3,7.479931E2,2.7854691E4,2.1396775E3,1.179371E3,2.8749993E3,5.3077383E3,-8.0755713E3,-6.016469E3,-5.4920674E3,-1.9276041E3,-2.1074194E3,-5.374335E3,2.7307317E3,1.0962899E4,-1.5866127E3,5.474858E3,1.1407039E4,3.065026E2,2.5522682E4,4.581657E4,-1.3976825E3,7.1566777E3,1.4943392E3,7.280887E2,-4.5518326E2,-3.8161063E2,-3.7407596E2,-2.71462E2,-3.3840085E2,-2.3359544E2,-1.7748108E1,-2.563685E2,-2.1464204E2,3.6527505E2,-3.2077905E2,-1.4010033E2,-5.2696834E0,2.7594095E2,7.2202246E2,-2.6438785E2,-2.0193921E2,-1.7652815E1,1.6159753E2,4.358016E2,4.014491E2,9.7897424E2,2.9459628E2,-7.938633E1,1.573663E3,8.0568964E2,2.8057405E3,1.6185294E3,-1.3818155E2,2.1707048E2,2.0380115E2,5.8970856E2],"categories":[],"categories_nodes":[],"categories_segments":[],"categories_sizes":[],"default_left":[0,0,0,0,0,0,0,0,0,0,0,0,0,0,0,0,0,0,0,0,0,0,0,0,0,0,0,0,0,0,0,0,0,0,0,0,0,0,0,0,0,0,0,0,0,0,0,0,0,0,0,0,0,0,0,0,0,0,0,0,0,0,0,0,0,0,0,0,0,0,0,0,0,0,0,0,0,0,0],"id":5,"left_children":[1,3,5,7,9,11,13,15,17,19,21,23,25,-1,27,29,31,33,35,37,39,41,43,-1,45,-1,-1,-1,-1,47,49,51,53,55,57,59,61,63,65,67,69,71,73,75,77,-1,-1,-1,-1,-1,-1,-1,-1,-1,-1,-1,-1,-1,-1,-1,-1,-1,-1,-1,-1,-1,-1,-1,-1,-1,-1,-1,-1,-1,-1,-1,-1,-1,-1],"loss_changes":[5.0778584E11,2.0596397E11,3.4194656E11,4.0204255E10,1.218682E11,2.101289E9,2.508374E11,1.354847E10,2.1899043E10,4.855572E10,8.91819E10,8.2748006E8,1.195561E8,0E0,1.2914524E9,2.3068918E9,6.6127094E9,1.7729382E9,7.2712223E9,1.7212428E10,3.8561645E10,2.2787752E10,2.9101368E9,0E0,1.8607923E8,0E0,0E0,0E0,0E0,6.584484E8,6.94954E8,1.1885773E9,4.748469E9,7.087281E9,8.578683E8,4.5947617E9,7.536006E9,4.6901806E9,3.1995556E9,2.5489695E10,5.013728E9,7.7231227E9,1.1476648E10,6.077851E8,1.1519923E9,0E0,0E0,0E0,0E0,0E0,0E0,0E0,0E0,0E0,0E0,0E0,0E0,0E0,0E0,0E0,0E0,0E0,0E0,0E0,0E0,0E0,0E0,0E0,0E0,0E0,0E0,0E0,0E0,0E0,0E0,0E0,0E0,0E0,0E0],"parents":[2147483647,0,0,1,1,2,2,3,3,4,4,5,5,6,6,7,7,8,8,9,9,10,10,11,11,12,12,14,14,15,15,16,16,17,17,18,18,19,19,20,20,21,21,22,22,24,24,29,29,30,30,31,31,32,32,33,33,34,34,35,35,36,36,37,37,38,38,39,39,40,40,41,41,42,42,43,43,44,44],"right_children":[2,4,6,8,10,12,14,16,18,20,22,24,26,-1,28,30,32,34,36,38,40,42,44,-1,46,-1,-1,-1,-1,48,50,52,54,56,58,60,62,64,66,68,70,72,74,76,78,-1,-1,-1,-1,-1,-1,-1,-1,-1,-1,-1,-1,-1,-1,-1,-1,-1,-1,-1,-1,-1,-1,-1,-1,-1,-1,-1,-1,-1,-1,-1,-1,-1,-1],"split_conditions":[3.2929676E0,1.0444595E0,2.1674785E4,1.8708762E4,2.3309557E4,1.2204684E4,7.71913E0,6.335482E-1,2E0,1.4292267E4,5E0,5E0,5E0,1.5357413E4,3E0,1.3515845E4,1.2204684E4,5E0,3.0881756E4,1.7488306E0,5E0,1.5056057E0,1E0,7.479931E2,5E0,2.1396775E3,1.179371E3,2.8749993E3,5.3077383E3,3.5850608E-1,3.5313466E-1,9.755667E3,5E0,4.7911787E-1,4E0,3E0,5E0,9.755667E3,2.1452708E0,1.6271558E0,1E0,2E0,2E0,1.5315874E0,1.3885517E0,1.4943392E3,7.280887E2,-4.5518326E2,-3.8161063E2,-3.7407596E2,-2.71462E2,-3.3840085E2,-2.3359544E2,-1.7748108E1,-2.563685E2,-2.1464204E2,3.6527505E2,-3.2077905E2,-1.4010033E2,-5.2696834E0,2.7594095E2,7.2202246E2,-2.6438785E2,-2.0193921E2,-1.7652815E1,1.6159753E2,4.358016E2,4.014491E2,9.7897424E2,2.9459628E2,-7.938633E1,1.573663E3,8.0568964E2,2.8057405E3,1.6185294E3,-1.3818155E2,2.1707048E2,2.0380115E2,5.8970856E2],"split_indices":[14,14,13,13,13,13,4,14,8,13,5,11,5,0,8,13,13,5,13,14,5,14,11,0,5,0,0,0,0,14,14,13,5,14,11,8,5,13,14,14,11,11,11,14,14,0,0,0,0,0,0,0,0,0,0,0,0,0,0,0,0,0,0,0,0,0,0,0,0,0,0,0,0,0,0,0,0,0,0],"split_type":[0,0,0,0,0,0,0,0,0,0,0,0,0,0,0,0,0,0,0,0,0,0,0,0,0,0,0,0,0,0,0,0,0,0,0,0,0,0,0,0,0,0,0,0,0,0,0,0,0,0,0,0,0,0,0,0,0,0,0,0,0,0,0,0,0,0,0,0,0,0,0,0,0,0,0,0,0,0,0],"sum_hessian":[9.81E3,9.729E3,8.1E1,5.937E3,3.792E3,5.3E1,2.8E1,4.558E3,1.379E3,3.393E3,3.99E2,3.4E1,1.9E1,8E0,2E1,2.45E3,2.108E3,6.68E2,7.11E2,1.993E3,1.4E3,2.41E2,1.58E2,1.2E1,2.2E1,1.4E1,5E0,5E0,1.5E1,1.596E3,8.54E2,1.165E3,9.43E2,3.42E2,3.26E2,5.8E2,1.31E2,1.55E3,4.43E2,9.28E2,4.72E2,1.46E2,9.5E1,7.5E1,8.3E1,1.8E1,4E0,4.75E2,1.121E3,2.41E2,6.13E2,4.53E2,7.12E2,6.33E2,3.1E2,2.78E2,6.4E1,2.31E2,9.5E1,2.88E2,2.92E2,1.08E2,2.3E1,5.18E2,1.032E3,2.63E2,1.8E2,6.58E2,2.7E2,1.19E2,3.53E2,8.8E1,5.8E1,5.2E1,4.3E1,6.1E1,1.4E1,5.1E1,3.2E1],"tree_param":{"num_deleted":"0","num_feature":"15","num_nodes":"79","size_leaf_vector":"1"}},{"base_weights":[6.9724075E1,-4.4887482E2,1.1184352E5,-2.4055547E3,1.0384367E4,3.1100875E5,4.6053207E4,-5.013811E3,1.1632631E3,7.5521436E3,3.4795438E4,8.1394854E3,1.7312107E4,3.073153E4,5.1474844E3,-6.066372E3,-8.958193E1,-3.5910928E2,1.2848369E4,2.408872E3,1.2006748E4,4.6201297E4,8.644968E3,3.5845957E4,7.691617E2,-7.167654E3,-4.793256E3,-3.2243389E3,3.4095396E3,-2.6319275E3,2.8488076E3,2.0074791E4,2.7449155E2,5.9210895E2,7.93841E3,1.4846354E4,4.9459395E3,3.8461387E4,7.435725E4,1.2042864E4,3.2857644E3,9.8644806E2,1.923883E3,-3.9887756E2,-3.0396036E2,-2.926458E2,-1.2529262E2,-8.7149445E1,-3.6152493E2,-1.6978828E1,3.086768E2,-2.3227983E2,-8.247723E1,2.9380206E2,-1.2063694E2,1.3647235E3,6.0198065E2,1.6767986E2,-1.5343425E2,-6.7163155E1,1.1908419E2,1.6438414E2,5.3715967E2,6.456895E2,1.3580634E3,1.2244799E2,7.1771405E2,2.3288003E3,1.4631803E3,3.9669707E3,1.6051312E3,5.0382993E2,9.732799E2,6.3198597E1,2.590575E2],"categories":[],"categories_nodes":[],"categories_segments":[],"categories_sizes":[],"default_left":[0,0,0,0,0,0,0,0,0,0,0,0,0,0,0,0,0,0,0,0,0,0,0,0,0,0,0,0,0,0,0,0,0,0,0,0,0,0,0,0,0,0,0,0,0,0,0,0,0,0,0,0,0,0,0,0,0,0,0,0,0,0,0,0,0,0,0,0,0,0,0,0,0,0,0],"id":6,"left_children":[1,3,5,7,9,11,13,15,17,19,21,-1,-1,23,-1,25,27,29,31,33,35,37,39,41,-1,43,45,47,49,51,53,55,57,59,61,63,65,67,69,71,73,-1,-1,-1,-1,-1,-1,-1,-1,-1,-1,-1,-1,-1,-1,-1,-1,-1,-1,-1,-1,-1,-1,-1,-1,-1,-1,-1,-1,-1,-1,-1,-1,-1,-1],"loss_changes":[5.648106E11,2.056165E11,5.753185E11,7.6483576E10,1.0233743E11,1.0800988E9,2.734742E10,2.4603394E10,6.1732733E10,3.0465933E10,4.553397E10,0E0,0E0,1.7250038E9,0E0,5.4491054E9,9.19196E9,2.2398194E10,3.6340142E10,6.2136873E9,1.4222148E10,2.045803E10,8.3450906E8,1.3159014E8,0E0,1.7983078E9,4.389503E9,2.6104566E9,4.1056635E9,3.5491297E9,2.030636E10,1.4406279E10,1.523508E9,1.6206506E9,1.9604541E9,1.1739316E10,4.804289E9,5.05575E9,2.0844134E9,2.2710682E8,7.009206E7,0E0,0E0,0E0,0E0,0E0,0E0,0E0,0E0,0E0,0E0,0E0,0E0,0E0,0E0,0E0,0E0,0E0,0E0,0E0,0E0,0E0,0E0,0E0,0E0,0E0,0E0,0E0,0E0,0E0,0E0,0E0,0E0,0E0,0E0],"parents":[2147483647,0,0,1,1,2,2,3,3,4,4,5,5,6,6,7,7,8,8,9,9,10,10,13,13,15,15,16,16,17,17,18,18,19,19,20,20,21,21,22,22,23,23,25,25,26,26,27,27,28,28,29,29,30,30,31,31,32,32,33,33,34,34,35,35,36,36,37,37,38,38,39,39,40,40],"right_children":[2,4,6,8,10,12,14,16,18,20,22,-1,-1,24,-1,26,28,30,32,34,36,38,40,42,-1,44,46,48,50,52,54,56,58,60,62,64,66,68,70,72,74,-1,-1,-1,-1,-1,-1,-1,-1,-1,-1,-1,-1,-1,-1,-1,-1,-1,-1,-1,-1,-1,-1,-1,-1,-1,-1,-1,-1,-1,-1,-1,-1,-1,-1],"split_conditions":[4.151256E0,1.494447E0,8.5E0,8.568516E-1,2.3309557E4,3E0,1.4862044E4,2.1674785E4,2.3309557E4,1.1652853E4,1.8E1,8.1394854E3,1.7312107E4,1.0296195E0,5.1474844E3,1.2204684E4,2E0,1.4292267E4,1.8E1,2.1452708E0,1.8E1,2.3145542E0,1E0,8.6E0,7.691617E2,5.935585E-1,6.392002E-1,1E0,5.836883E-1,9.755667E3,1.8E1,2E0,1E0,1.0103786E4,9.755667E3,2.3145542E0,2.4991784E0,2E1,3.1E1,1.8856442E0,2.1047094E0,9.8644806E2,1.923883E3,-3.9887756E2,-3.0396036E2,-2.926458E2,-1.2529262E2,-8.7149445E1,-3.6152493E2,-1.6978828E1,3.086768E2,-2.3227983E2,-8.247723E1,2.9380206E2,-1.2063694E2,1.3647235E3,6.0198065E2,1.6767986E2,-1.5343425E2,-6.7163155E1,1.1908419E2,1.6438414E2,5.3715967E2,6.456895E2,1.3580634E3,1.2244799E2,7.1771405E2,2.3288003E3,1.4631803E3,3.9669707E3,1.6051312E3,5.0382993E2,9.732799E2,6.3198597E1,2.590575E2],"split_indices":[14,14,0,14,13,8,13,13,13,13,9,0,0,3,0,13,8,13,9,14,9,14,10,0,0,14,14,10,14,13,9,11,10,13,13,14,14,11,11,14,14,0,0,0,0,0,0,0,0,0,0,0,0,0,0,0,0,0,0,0,0,0,0,0,0,0,0,0,0,0,0,0,0,0,0],"split_type":[0,0,0,0,0,0,0,0,0,0,0,0,0,0,0,0,0,0,0,0,0,0,0,0,0,0,0,0,0,0,0,0,0,0,0,0,0,0,0,0,0,0,0,0,0,0,0,0,0,0,0,0,0,0,0,0,0,0,0,0,0,0,0,0,0,0,0,0,0,0,0,0,0,0,0],"sum_hessian":[9.742E3,9.698E3,4.4E1,8.215E3,1.483E3,1E1,3.4E1,4.746E3,3.469E3,1.33E3,1.53E2,3E0,7E0,2.8E1,6E0,3.91E3,8.36E2,3.07E3,3.99E2,6.18E2,7.12E2,1.06E2,4.7E1,2E1,8E0,2.094E3,1.816E3,4.41E2,3.95E2,1.797E3,1.273E3,2.53E2,1.46E2,4.66E2,1.52E2,5.07E2,2.05E2,8.5E1,2.1E1,2.8E1,1.9E1,4E0,1.6E1,1.197E3,8.97E2,1.24E3,5.76E2,3.23E2,1.18E2,1.68E2,2.27E2,5.88E2,1.209E3,8.08E2,4.65E2,1.32E2,1.21E2,7.6E1,7E1,2.24E2,2.42E2,5.8E1,9.4E1,4.4E2,6.7E1,1.63E2,4.2E1,4.3E1,4.2E1,1.8E1,3E0,2.4E1,4E0,1E1,9E0],"tree_param":{"num_deleted":"0","num_feature":"15","num_nodes":"75","size_leaf_vector":"1"}},{"base_weights":[7.910951E1,-4.478196E2,1.1418678E5,-2.718003E3,8.0592275E3,1.58197295E4,4.7373266E4,-4.3744873E3,1.6699448E3,5.628866E3,3.1056945E4,2.9349148E4,4.809096E3,-6.1460444E3,-1.8546299E3,-9.8798126E2,9.09575E3,2.3568796E3,1.0681529E4,3.9487543E4,8.15634E3,3.3912504E4,7.136049E2,-7.2240605E3,-5.2195107E3,-3.6813398E3,3.318869E2,-3.667475E3,2.136983E3,6.2172144E3,2.1400531E4,9.856016E2,8.644944E3,7.260757E3,1.8181383E4,3.359354E4,3.6064602E3,3.557696E3,1.1206726E4,9.469902E2,1.8235969E3,-3.8873605E2,-3.1807022E2,-3.034472E2,-1.9296207E2,-2.4476152E2,-1.3741539E2,1.04212585E2,-1.5045862E2,-2.1980388E2,-6.5273485E0,2.2419969E2,-1.4633488E2,5.1147663E1,3.8544724E2,6.788158E2,1.3410833E3,1.1146554E2,-1.1527787E2,1.9709576E2,5.725204E2,5.3577655E2,5.542857E1,7.9586804E2,1.2506677E3,2.1484202E3,1.2423015E3,2.2107564E2,-2.1816343E1,4.735362E2,9.3434875E2],"categories":[],"categories_nodes":[],"categories_segments":[],"categories_sizes":[],"default_left":[0,0,0,0,0,0,0,0,0,0,0,0,0,0,0,0,0,0,0,0,0,0,0,0,0,0,0,0,0,0,0,0,0,0,0,0,0,0,0,0,0,0,0,0,0,0,0,0,0,0,0,0,0,0,0,0,0,0,0,0,0,0,0,0,0,0,0,0,0,0,0],"id":7,"left_children":[1,3,5,7,9,-1,11,13,15,17,19,21,-1,23,25,27,29,31,33,35,37,39,-1,41,43,45,47,49,51,53,55,57,59,61,63,65,-1,67,69,-1,-1,-1,-1,-1,-1,-1,-1,-1,-1,-1,-1,-1,-1,-1,-1,-1,-1,-1,-1,-1,-1,-1,-1,-1,-1,-1,-1,-1,-1,-1,-1],"loss_changes":[5.886309E11,1.8822277E11,5.9297104E11,5.592439E10,1.14573025E11,0E0,2.7967783E10,2.492044E10,4.163483E10,3.069173E10,3.7518836E10,1.3736448E9,0E0,3.237421E9,9.215685E9,1.3019979E10,1.956033E10,9.726491E9,1.8596348E10,2.5088705E10,7.1762074E8,7.565517E7,0E0,6.692618E8,2.0182671E9,1.4102231E9,6.159619E9,2.1563884E9,8.5462036E9,3.4944061E9,4.0895488E9,3.8036708E9,2.6200863E9,1.0679087E10,3.1284838E9,9.019212E9,0E0,8.128202E7,2.3856128E8,0E0,0E0,0E0,0E0,0E0,0E0,0E0,0E0,0E0,0E0,0E0,0E0,0E0,0E0,0E0,0E0,0E0,0E0,0E0,0E0,0E0,0E0,0E0,0E0,0E0,0E0,0E0,0E0,0E0,0E0,0E0,0E0],"parents":[2147483647,0,0,1,1,2,2,3,3,4,4,6,6,7,7,8,8,9,9,10,10,11,11,13,13,14,14,15,15,16,16,17,17,18,18,19,19,20,20,21,21,23,23,24,24,25,25,26,26,27,27,28,28,29,29,30,30,31,31,32,32,33,33,34,34,35,35,37,37,38,38],"right_children":[2,4,6,8,10,-1,12,14,16,18,20,22,-1,24,26,28,30,32,34,36,38,40,-1,42,44,46,48,50,52,54,56,58,60,62,64,66,-1,68,70,-1,-1,-1,-1,-1,-1,-1,-1,-1,-1,-1,-1,-1,-1,-1,-1,-1,-1,-1,-1,-1,-1,-1,-1,-1,-1,-1,-1,-1,-1,-1,-1],"split_conditions":[4.151256E0,1.3551315E0,8.5E0,1.6666672E4,2.3309557E4,1.58197295E4,1.4862044E4,8.2897085E-1,3E0,1.4292267E4,4E0,1.0296195E0,4.809096E3,5.0108933E-1,1.1652853E4,2E0,3.0881756E4,2.1452708E0,1.8307068E0,2.3145542E0,1.1E1,8.6E0,7.136049E2,1.2204684E4,1.2204684E4,9.755667E3,4E0,6.893262E-1,1E0,6.968519E-1,9.1308385E-1,1E0,1.0103786E4,4E0,2.710367E0,2E1,3.6064602E3,1.0986123E0,1.8856442E0,9.469902E2,1.8235969E3,-3.8873605E2,-3.1807022E2,-3.034472E2,-1.9296207E2,-2.4476152E2,-1.3741539E2,1.04212585E2,-1.5045862E2,-2.1980388E2,-6.5273485E0,2.2419969E2,-1.4633488E2,5.1147663E1,3.8544724E2,6.788158E2,1.3410833E3,1.1146554E2,-1.1527787E2,1.9709576E2,5.725204E2,5.3577655E2,5.542857E1,7.9586804E2,1.2506677E3,2.1484202E3,1.2423015E3,2.2107564E2,-2.1816343E1,4.735362E2,9.3434875E2],"split_indices":[14,14,0,13,13,0,13,14,8,13,6,3,0,14,13,8,13,14,14,14,11,0,0,13,13,13,6,14,10,14,14,10,13,6,14,11,0,3,14,0,0,0,0,0,0,0,0,0,0,0,0,0,0,0,0,0,0,0,0,0,0,0,0,0,0,0,0,0,0,0,0],"split_type":[0,0,0,0,0,0,0,0,0,0,0,0,0,0,0,0,0,0,0,0,0,0,0,0,0,0,0,0,0,0,0,0,0,0,0,0,0,0,0,0,0,0,0,0,0,0,0,0,0,0,0,0,0,0,0,0,0,0,0,0,0,0,0,0,0,0,0,0,0,0,0],"sum_hessian":[9.788E3,9.744E3,4.4E1,7.692E3,2.052E3,1E1,3.4E1,5.584E3,2.108E3,1.857E3,1.95E2,2.6E1,8E0,3.278E3,2.306E3,1.553E3,5.55E2,1.128E3,7.29E2,1.42E2,5.3E1,1.9E1,7E0,1.512E3,1.766E3,1.256E3,1.05E3,8.36E2,7.17E2,4.51E2,1.04E2,9.27E2,2.01E2,5.02E2,2.27E2,1.22E2,2E1,2.2E1,3.1E1,4E0,1.5E1,9.18E2,5.94E2,1.085E3,6.81E2,5.44E2,7.12E2,6.89E2,3.61E2,6.93E2,1.43E2,4.9E2,2.27E2,1.01E2,3.5E2,4.4E1,6E1,6.73E2,2.54E2,7.6E1,1.25E2,3.21E2,1.81E2,1.73E2,5.4E1,5.7E1,6.5E1,1.8E1,4E0,2.7E1,4E0],"tree_param":{"num_deleted":"0","num_feature":"15","num_nodes":"71","size_leaf_vector":"1"}},{"base_weights":[1.0076421E1,-4.468345E2,9.479458E4,-3.3429468E3,5.571333E3,1.3596772E4,4.5683965E4,-4.7930654E3,6.305136E2,3.7428127E3,2.1285262E4,2.7074582E4,4.754138E3,-6.0662793E3,-2.8053896E3,-2.7852898E3,5.0916934E3,2.2483987E3,1.1863804E4,3.2893605E4,3.4001157E3,2.1783658E4,1.9120146E3,-7.241152E3,-5.4492344E3,-4.20936E3,-1.1625858E3,-4.186426E3,1.5574129E2,8.558351E3,-2.1990754E3,-8.862552E2,5.238273E3,7.1320225E3,1.8685264E4,2.8850686E4,6.598085E4,7.019932E3,-4.9906445E2,2.3224055E4,6.1207385E2,-3.9130267E2,-3.3324524E2,-3.0479916E2,-2.0472195E2,-2.6533688E2,-1.6909612E2,2.5744925E1,-2.0672742E2,-1.530433E2,-3.1636606E2,-3.484251E1,3.1911136E2,2.812739E2,9.336888E2,2.327997E1,-1.64903E2,-1.2637667E2,9.647727E0,4.0659814E2,1.0866702E1,1.4610588E2,4.658945E2,1.0169897E3,5.3493646E2,1.1059962E3,1.7818014E3,3.63303E3,1.5036765E3,2.6847263E2,6.0241974E2,-9.851453E1,1.8421683E2,1.3002925E3,6.6630695E2],"categories":[],"categories_nodes":[],"categories_segments":[],"categories_sizes":[],"default_left":[0,0,0,0,0,0,0,0,0,0,0,0,0,0,0,0,0,0,0,0,0,0,0,0,0,0,0,0,0,0,0,0,0,0,0,0,0,0,0,0,0,0,0,0,0,0,0,0,0,0,0,0,0,0,0,0,0,0,0,0,0,0,0,0,0,0,0,0,0,0,0,0,0,0,0],"id":8,"left_children":[1,3,5,7,9,-1,11,13,15,17,19,21,-1,23,25,27,29,31,33,35,37,39,-1,41,43,45,47,49,51,53,55,57,59,61,63,65,67,69,71,73,-1,-1,-1,-1,-1,-1,-1,-1,-1,-1,-1,-1,-1,-1,-1,-1,-1,-1,-1,-1,-1,-1,-1,-1,-1,-1,-1,-1,-1,-1,-1,-1,-1,-1,-1],"loss_changes":[4.2428822E11,1.699542E11,3.964533E11,3.7934186E10,9.094721E10,0E0,3.2358343E10,1.2188713E10,2.6849206E10,3.442778E10,6.840174E10,8.80212E8,0E0,2.0911718E9,4.3427584E9,4.113196E9,1.9328614E10,2.2488603E10,1.4101185E10,2.4850235E10,1.8524794E9,1.8079744E7,0E0,2.8791603E8,1.6670065E9,9.0459136E8,4.339445E9,1.6095918E9,1.7191415E9,1.5262581E10,7.248598E8,2.076432E9,1.7839892E10,2.3837727E9,2.160894E9,7.432438E9,2.851709E9,4.996626E8,4.0116166E8,1.4905037E8,0E0,0E0,0E0,0E0,0E0,0E0,0E0,0E0,0E0,0E0,0E0,0E0,0E0,0E0,0E0,0E0,0E0,0E0,0E0,0E0,0E0,0E0,0E0,0E0,0E0,0E0,0E0,0E0,0E0,0E0,0E0,0E0,0E0,0E0,0E0],"parents":[2147483647,0,0,1,1,2,2,3,3,4,4,6,6,7,7,8,8,9,9,10,10,11,11,13,13,14,14,15,15,16,16,17,17,18,18,19,19,20,20,21,21,23,23,24,24,25,25,26,26,27,27,28,28,29,29,30,30,31,31,32,32,33,33,34,34,35,35,36,36,37,37,38,38,39,39],"right_children":[2,4,6,8,10,-1,12,14,16,18,20,22,-1,24,26,28,30,32,34,36,38,40,-1,42,44,46,48,50,52,54,56,58,60,62,64,66,68,70,72,74,-1,-1,-1,-1,-1,-1,-1,-1,-1,-1,-1,-1,-1,-1,-1,-1,-1,-1,-1,-1,-1,-1,-1,-1,-1,-1,-1,-1,-1,-1,-1,-1,-1,-1,-1],"split_conditions":[4.151256E0,1.1661333E0,8.5E0,1.6666672E4,2.3309557E4,1.3596772E4,1.4862044E4,7.505024E-1,6.893262E-1,2.0017514E0,5E0,1.2204684E4,4.754138E3,4.1737258E-1,1.1652853E4,2E0,5E0,1.2204684E4,1.3515845E4,2.3145542E0,1E0,8.205765E0,1.9120146E3,1.0915879E4,1.2303549E4,9.755667E3,5E0,1E0,3.0881756E4,3.0881756E4,1E0,9.755667E3,5E0,1.0103786E4,1E0,3.0881756E4,8.151045E0,1.6271558E0,1.5315874E0,5E0,6.1207385E2,-3.9130267E2,-3.3324524E2,-3.0479916E2,-2.0472195E2,-2.6533688E2,-1.6909612E2,2.5744925E1,-2.0672742E2,-1.530433E2,-3.1636606E2,-3.484251E1,3.1911136E2,2.812739E2,9.336888E2,2.327997E1,-1.64903E2,-1.2637667E2,9.647727E0,4.0659814E2,1.0866702E1,1.4610588E2,4.658945E2,1.0169897E3,5.3493646E2,1.1059962E3,1.7818014E3,3.63303E3,1.5036765E3,2.6847263E2,6.0241974E2,-9.851453E1,1.8421683E2,1.3002925E3,6.6630695E2],"split_indices":[14,14,0,13,13,0,13,14,14,14,5,13,0,14,13,8,5,13,13,14,10,4,0,13,13,13,5,10,13,13,10,13,5,13,10,13,4,14,14,5,0,0,0,0,0,0,0,0,0,0,0,0,0,0,0,0,0,0,0,0,0,0,0,0,0,0,0,0,0,0,0,0,0,0,0],"split_type":[0,0,0,0,0,0,0,0,0,0,0,0,0,0,0,0,0,0,0,0,0,0,0,0,0,0,0,0,0,0,0,0,0,0,0,0,0,0,0,0,0,0,0,0,0,0,0,0,0,0,0,0,0,0,0,0,0,0,0,0,0,0,0,0,0,0,0,0,0,0,0,0,0,0,0],"sum_hessian":[9.795E3,9.749E3,4.6E1,6.582E3,3.167E3,9E0,3.7E1,4.822E3,1.76E3,2.838E3,3.29E2,2.8E1,9E0,2.938E3,1.884E3,9.97E2,7.63E2,2.398E3,4.4E2,1.99E2,1.3E2,2.1E1,7E0,1.008E3,1.93E3,1.015E3,8.69E2,6.75E2,3.22E2,5.17E2,2.46E2,1.171E3,1.227E3,2.61E2,1.79E2,1.79E2,2E1,6.7E1,6.3E1,1.7E1,4E0,4.94E2,5.14E2,1.304E3,6.26E2,4.34E2,5.81E2,5.56E2,3.13E2,4.44E2,2.31E2,2.84E2,3.8E1,4.02E2,1.15E2,7.2E1,1.74E2,4.64E2,7.07E2,7.78E2,4.49E2,9E1,1.71E2,1.47E2,3.2E1,9.2E1,8.7E1,1.6E1,4E0,5.2E1,1.5E1,4.7E1,1.6E1,1.2E1,5E0],"tree_param":{"num_deleted":"0","num_feature":"15","num_nodes":"75","size_leaf_vector":"1"}},{"base_weights":[1.07086945E2,-3.76651E2,9.779977E4,-2.1717908E3,8.421184E3,2.4913633E4,1.9859467E5,-4.2613813E3,9.6683997E2,6.1277236E3,2.9494352E4,2.026124E4,1.8320479E3,2.785321E5,4.5402017E3,-5.157336E3,-1.9600572E2,-4.0571457E2,1.1131254E4,2.698629E3,1.1183852E4,3.9249875E4,7.052089E3,6.122199E2,2.1807893E4,6.731136E3,1.5783513E4,-6.060568E3,-3.919731E3,1.6538265E3,-5.0895376E3,-2.4582864E3,2.3443552E3,1.7493826E4,2.0960745E2,1.1441613E3,7.6896836E3,1.3962332E4,3.8522578E3,3.3214977E4,3.3520486E3,2.7493198E3,9.828954E3,1.2524648E3,6.5678845E2,-3.3679706E2,-2.4970445E2,-2.5741318E2,-1.2405535E2,-1.3863591E2,2.82566E2,-3.1591525E2,-1.3445589E2,-2.0484056E2,-8.172422E1,2.4516101E2,-1.0180398E2,1.1675521E3,5.24339E2,-1.3153868E2,1.3554356E2,-6.238545E1,1.3640474E2,1.5385985E2,4.714733E2,6.114026E2,1.2845386E3,4.7239777E2,-6.3438797E0,2.0610002E3,1.28287E3,5.1712963E1,2.2662251E2,3.950326E2,7.0720966E2],"categories":[],"categories_nodes":[],"categories_segments":[],"categories_sizes":[],"default_left":[0,0,0,0,0,0,0,0,0,0,0,0,0,0,0,0,0,0,0,0,0,0,0,0,0,0,0,0,0,0,0,0,0,0,0,0,0,0,0,0,0,0,0,0,0,0,0,0,0,0,0,0,0,0,0,0,0,0,0,0,0,0,0,0,0,0,0,0,0,0,0,0,0,0,0],"id":9,"left_children":[1,3,5,7,9,11,13,15,17,19,21,23,-1,25,-1,27,29,31,33,35,37,39,41,-1,43,-1,-1,45,47,49,51,53,55,57,59,61,63,65,67,69,-1,71,73,-1,-1,-1,-1,-1,-1,-1,-1,-1,-1,-1,-1,-1,-1,-1,-1,-1,-1,-1,-1,-1,-1,-1,-1,-1,-1,-1,-1,-1,-1,-1,-1],"loss_changes":[4.6037372E11,1.5311895E11,3.4768673E11,5.2812784E10,7.9226225E10,8.3984794E8,1.470382E11,1.760632E10,4.4913467E10,2.5681981E10,3.4971894E10,1.815552E7,0E0,1.6293364E10,0E0,4.4040274E9,7.9200517E9,1.6019821E10,2.661091E10,6.857415E9,1.2148253E10,1.655749E10,5.703864E8,0E0,1.7693235E8,0E0,0E0,1.6143401E9,2.9458473E9,1.1252046E10,6.90902E8,2.1867612E9,1.3606429E10,9.687245E9,1.01597664E9,2.5644728E9,1.6561736E9,8.5135933E9,3.697362E9,4.629258E9,0E0,5.9533424E7,1.3788186E8,0E0,0E0,0E0,0E0,0E0,0E0,0E0,0E0,0E0,0E0,0E0,0E0,0E0,0E0,0E0,0E0,0E0,0E0,0E0,0E0,0E0,0E0,0E0,0E0,0E0,0E0,0E0,0E0,0E0,0E0,0E0,0E0],"parents":[2147483647,0,0,1,1,2,2,3,3,4,4,5,5,6,6,7,7,8,8,9,9,10,10,11,11,13,13,15,15,16,16,17,17,18,18,19,19,20,20,21,21,22,22,24,24,27,27,28,28,29,29,30,30,31,31,32,32,33,33,34,34,35,35,36,36,37,37,38,38,39,39,41,41,42,42],"right_children":[2,4,6,8,10,12,14,16,18,20,22,24,-1,26,-1,28,30,32,34,36,38,40,42,-1,44,-1,-1,46,48,50,52,54,56,58,60,62,64,66,68,70,-1,72,74,-1,-1,-1,-1,-1,-1,-1,-1,-1,-1,-1,-1,-1,-1,-1,-1,-1,-1,-1,-1,-1,-1,-1,-1,-1,-1,-1,-1,-1,-1,-1,-1],"split_conditions":[4.151256E0,1.4537166E0,1.4862044E4,8.6702585E-1,2.3309557E4,1.2204684E4,7.71913E0,2.1674785E4,2.3309557E4,1.3515845E4,5E0,5E0,1.8320479E3,3E0,4.5402017E3,5.935585E-1,5E0,1.4292267E4,5E0,2.1047094E0,5E0,2.3145542E0,1E0,6.122199E2,5E0,6.731136E3,1.5783513E4,1.3515845E4,1.2204684E4,4.836426E-1,6E0,9.755667E3,5E0,2E0,1E0,1.0103786E4,9.755667E3,2.3145542E0,1E0,2E0,3.3520486E3,2.1047094E0,1.6919953E0,1.2524648E3,6.5678845E2,-3.3679706E2,-2.4970445E2,-2.5741318E2,-1.2405535E2,-1.3863591E2,2.82566E2,-3.1591525E2,-1.3445589E2,-2.0484056E2,-8.172422E1,2.4516101E2,-1.0180398E2,1.1675521E3,5.24339E2,-1.3153868E2,1.3554356E2,-6.238545E1,1.3640474E2,1.5385985E2,4.714733E2,6.114026E2,1.2845386E3,4.7239777E2,-6.3438797E0,2.0610002E3,1.28287E3,5.1712963E1,2.2662251E2,3.950326E2,7.0720966E2],"split_indices":[14,14,13,14,13,13,4,13,13,13,5,1,0,8,0,14,5,13,5,14,5,14,11,0,5,0,0,13,13,14,11,13,5,11,11,13,13,14,11,11,0,14,14,0,0,0,0,0,0,0,0,0,0,0,0,0,0,0,0,0,0,0,0,0,0,0,0,0,0,0,0,0,0,0,0],"split_type":[0,0,0,0,0,0,0,0,0,0,0,0,0,0,0,0,0,0,0,0,0,0,0,0,0,0,0,0,0,0,0,0,0,0,0,0,0,0,0,0,0,0,0,0,0,0,0,0,0,0,0,0,0,0,0,0,0,0,0,0,0,0,0,0,0,0,0,0,0,0,0,0,0,0,0],"sum_hessian":[9.74E3,9.693E3,4.7E1,8.051E3,1.642E3,2.8E1,1.9E1,4.833E3,3.218E3,1.482E3,1.6E2,2.2E1,6E0,1E1,9E0,3.96E3,8.73E2,2.836E3,3.82E2,8.84E2,5.98E2,1.11E2,4.9E1,5E0,1.7E1,3E0,7E0,2.287E3,1.673E3,6.34E2,2.39E2,1.624E3,1.212E3,2.41E2,1.41E2,6.75E2,2.09E2,4.33E2,1.65E2,9.3E1,1.8E1,2E1,2.9E1,1.1E1,6E0,1.397E3,8.9E2,9.01E2,7.72E2,3.01E2,3.33E2,1.57E2,8.2E1,5.42E2,1.082E3,7.65E2,4.47E2,1.3E2,1.11E2,6.6E1,7.5E1,2.69E2,4.06E2,5.8E1,1.51E2,3.79E2,5.4E1,6.8E1,9.7E1,4.3E1,5E1,1.1E1,9E0,2.2E1,7E0],"tree_param":{"num_deleted":"0","num_feature":"15","num_nodes":"75","size_leaf_vector":"1"}},{"base_weights":[3.5460697E1,-4.369696E2,9.724478E4,-3.4499934E3,4.2698486E3,2.682676E5,3.7535934E4,-5.05797E3,-1.559704E3,2.2364485E3,1.1006561E4,6.4787183E3,1.5005075E4,2.245196E4,6.9776586E4,-5.7124897E3,-4.236829E3,-2.4927104E3,1.2538071E1,4.0943413E3,-2.2889028E3,9.483379E3,2.6669094E4,1.3354832E3,6.484333E2,4.24687E3,1.1005393E3,-6.9225244E3,-5.4007935E3,-1.1068772E3,-4.972644E3,-2.0150685E3,-4.6479634E3,-1.0986359E3,1.2587971E3,2.9904758E3,5.6396123E3,-1.6058884E3,-3.5635112E3,1.1323429E4,3.6471426E3,5.589265E4,2.1473148E4,-3.9367245E2,-3.3040152E2,-2.5142448E2,-3.2913556E2,-1.0411562E2,4.5561447E1,-1.9768777E2,-2.6734756E2,-1.9168672E2,-4.7482815E1,-1.8041885E2,-2.8387775E2,-2.783964E2,-3.921084E1,-5.6965767E1,9.611433E1,2.4440059E2,1.1057587E2,4.020812E2,2.3851831E2,-1.0434611E2,5.4949978E1,-2.5599258E2,-9.753915E1,6.181409E2,2.4414542E2,3.5560394E2,2.752391E1,1.3094476E3,3.4562446E3,5.6506976E2,1.2780548E3],"categories":[],"categories_nodes":[],"categories_segments":[],"categories_sizes":[],"default_left":[0,0,0,0,0,0,0,0,0,0,0,0,0,0,0,0,0,0,0,0,0,0,0,0,0,0,0,0,0,0,0,0,0,0,0,0,0,0,0,0,0,0,0,0,0,0,0,0,0,0,0,0,0,0,0,0,0,0,0,0,0,0,0,0,0,0,0,0,0,0,0,0,0,0,0],"id":10,"left_children":[1,3,5,7,9,11,13,15,17,19,21,-1,-1,23,25,27,29,31,33,35,37,39,41,-1,-1,-1,-1,43,45,47,49,51,53,55,57,59,61,63,65,67,69,71,73,-1,-1,-1,-1,-1,-1,-1,-1,-1,-1,-1,-1,-1,-1,-1,-1,-1,-1,-1,-1,-1,-1,-1,-1,-1,-1,-1,-1,-1,-1,-1,-1],"loss_changes":[4.462921E11,1.3716647E11,4.698742E11,1.791629E10,5.1686957E10,1.4096335E10,1.5940784E10,1.6881172E9,3.9782963E9,2.4399872E10,2.0621844E10,0E0,0E0,7.034102E8,6.096302E9,6.301901E8,3.25794E9,1.7427395E9,1.4014264E9,3.4919055E9,7.2991334E8,8.539136E9,1.0491781E10,0E0,0E0,0E0,0E0,5.5332864E7,5.8822246E8,5.3536973E8,4.1629696E8,2.699351E9,3.091794E8,7.4743136E8,7.6115546E8,1.7658685E9,1.7489121E9,7.2052416E8,7.2793856E8,4.0030208E9,2.0669245E9,2.513195E9,2.4970895E9,0E0,0E0,0E0,0E0,0E0,0E0,0E0,0E0,0E0,0E0,0E0,0E0,0E0,0E0,0E0,0E0,0E0,0E0,0E0,0E0,0E0,0E0,0E0,0E0,0E0,0E0,0E0,0E0,0E0,0E0,0E0,0E0],"parents":[2147483647,0,0,1,1,2,2,3,3,4,4,5,5,6,6,7,7,8,8,9,9,10,10,13,13,14,14,15,15,16,16,17,17,18,18,19,19,20,20,21,21,22,22,27,27,28,28,29,29,30,30,31,31,32,32,33,33,34,34,35,35,36,36,37,37,38,38,39,39,40,40,41,41,42,42],"right_children":[2,4,6,8,10,12,14,16,18,20,22,-1,-1,24,26,28,30,32,34,36,38,40,42,-1,-1,-1,-1,44,46,48,50,52,54,56,58,60,62,64,66,68,70,72,74,-1,-1,-1,-1,-1,-1,-1,-1,-1,-1,-1,-1,-1,-1,-1,-1,-1,-1,-1,-1,-1,-1,-1,-1,-1,-1,-1,-1,-1,-1,-1,-1],"split_conditions":[4.151256E0,1.0444595E0,8.5E0,2E0,1.735663E0,3E0,3.4E1,5.1295567E-1,3E0,1E0,2.861693E0,6.4787183E3,1.5005075E4,4.7000363E-1,8.9E0,2.5739506E-1,5E0,1E0,8.568516E-1,1.3551315E0,7E0,5E0,1.3976194E-1,1.3354832E3,6.484333E2,4.24687E3,1.1005393E3,1.8777099E-1,1E0,9.1629076E-1,1E0,6.063752E-1,3E0,4.602478E-1,1E0,7.666222E0,2E0,6E0,1.9E1,9.162305E0,7.424762E0,9.1E0,5.877867E-1,-3.9367245E2,-3.3040152E2,-2.5142448E2,-3.2913556E2,-1.0411562E2,4.5561447E1,-1.9768777E2,-2.6734756E2,-1.9168672E2,-4.7482815E1,-1.8041885E2,-2.8387775E2,-2.783964E2,-3.921084E1,-5.6965767E1,9.611433E1,2.4440059E2,1.1057587E2,4.020812E2,2.3851831E2,-1.0434611E2,5.4949978E1,-2.5599258E2,-9.753915E1,6.181409E2,2.4414542E2,3.5560394E2,2.752391E1,1.3094476E3,3.4562446E3,5.6506976E2,1.2780548E3],"split_indices":[14,14,0,8,14,8,11,14,8,10,14,0,0,3,0,14,5,10,14,14,11,5,3,0,0,0,0,14,10,3,10,14,11,14,11,4,11,11,11,4,4,0,3,0,0,0,0,0,0,0,0,0,0,0,0,0,0,0,0,0,0,0,0,0,0,0,0,0,0,0,0,0,0,0,0],"split_type":[0,0,0,0,0,0,0,0,0,0,0,0,0,0,0,0,0,0,0,0,0,0,0,0,0,0,0,0,0,0,0,0,0,0,0,0,0,0,0,0,0,0,0,0,0,0,0,0,0,0,0,0,0,0,0,0,0,0,0,0,0,0,0,0,0,0,0,0,0,0,0,0,0,0,0],"sum_hessian":[9.716E3,9.67E3,4.6E1,5.896E3,3.774E3,1.1E1,3.5E1,3.185E3,2.711E3,2.9E3,8.74E2,3E0,8E0,2.5E1,1E1,1.769E3,1.416E3,1.701E3,1.01E3,2.056E3,8.44E2,7.98E2,7.6E1,1.6E1,9E0,7E0,3E0,3.58E2,1.411E3,2.7E2,1.146E3,1.394E3,3.07E2,5.34E2,4.76E2,1.201E3,8.55E2,5.51E2,2.93E2,6.06E2,1.92E2,1E1,6.6E1,8.3E1,2.75E2,1.077E3,3.34E2,1.82E2,8.8E1,3.11E2,8.35E2,5.14E2,8.8E2,1.55E2,1.52E2,3.4E1,5E2,1.03E2,3.73E2,3.48E2,8.53E2,2.25E2,6.3E2,4.68E2,8.3E1,1.48E2,1.45E2,5.21E2,8.5E1,9E1,1.02E2,4E0,6E0,2E1,4.6E1],"tree_param":{"num_deleted":"0","num_feature":"15","num_nodes":"75","size_leaf_vector":"1"}},{"base_weights":[6.0105114E1,-1.9828275E3,5.70805E3,-3.4076702E3,-2.6429376E2,3.89166E3,2.9609123E4,-3.7435046E3,1.9891507E2,-7.6015765E2,6.66525E3,6.7094175E3,-2.0405073E3,9.525454E3,9.238232E4,-4.887826E3,-2.9715322E3,2.036905E3,-1.3558434E3,4.2435434E2,-3.154506E3,8.953895E3,-1.3175569E3,3.9538313E3,1.8583338E4,1.3039136E3,-2.9784397E3,1.7022578E4,1.8922513E3,1.9792092E5,4.6620312E4,-4.391632E3,-5.704521E3,-3.3799565E3,2.775352E2,-1.7083741E3,4.6775835E3,-2.4790384E2,-1.0004718E3,-1.8018453E3,1.8526837E3,-2.329884E3,-5.669183E3,7.42929E2,1.0955516E4,-3.0604448E3,5.841599E2,1.8506823E3,9.4365E3,3.4916716E3,1.6615992E4,-1.5277206E3,4.0874612E3,-1.7073102E3,-4.3218315E3,2.1620348E4,6.6871157E3,5.3012983E3,-3.7333123E3,1.6350894E2,1.2799456E4,2.0109652E4,7.187412E4,-2.9834604E2,-1.9684383E2,-2.5266365E2,-3.456661E2,-2.0072577E2,-1.168684E2,1.5487308E2,-1.1813488E2,-1.3798819E2,-3.278958E0,1.6039539E2,2.9769626E2,-7.362491E1,3.7248386E1,-2.2288206E2,-5.082507E1,6.766464E1,4.0469586E2,-5.783205E1,-2.1788069E2,-2.1978613E2,-3.0281717E2,-7.575158E0,2.4711064E2,-1.3445923E1,6.128217E2,-1.6935089E2,8.210328E0,-6.378598E1,1.962241E2,3.211323E2,5.9667194E2,1.3130936E3,7.127931E2,1.2204559E1,-1.6737662E2,3.6932397E2,9.46993E1,4.3575848E1,-1.717893E2,-1.7805803E2,-2.5316605E2,1.9611786E3,6.980666E2,1.7081915E2,7.6923883E2,-5.5736813E1,4.1663046E2,-2.3963513E2,-3.090803E1,1.3683173E3,7.402748E2,2.0953508E3,4.0842896E3],"categories":[],"categories_nodes":[],"categories_segments":[],"categories_sizes":[],"default_left":[0,0,0,0,0,0,0,0,0,0,0,0,0,0,0,0,0,0,0,0,0,0,0,0,0,0,0,0,0,0,0,0,0,0,0,0,0,0,0,0,0,0,0,0,0,0,0,0,0,0,0,0,0,0,0,0,0,0,0,0,0,0,0,0,0,0,0,0,0,0,0,0,0,0,0,0,0,0,0,0,0,0,0,0,0,0,0,0,0,0,0,0,0,0,0,0,0,0,0,0,0,0,0,0,0,0,0,0,0,0,0,0,0,0,0,0,0],"id":11,"left_children":[1,3,5,7,9,11,13,15,17,19,21,23,25,27,29,31,33,35,37,39,41,43,45,47,49,51,53,55,57,59,61,63,65,67,69,71,73,-1,75,77,79,81,83,85,87,89,-1,91,93,-1,95,97,99,101,103,105,107,109,111,-1,-1,113,115,-1,-1,-1,-1,-1,-1,-1,-1,-1,-1,-1,-1,-1,-1,-1,-1,-1,-1,-1,-1,-1,-1,-1,-1,-1,-1,-1,-1,-1,-1,-1,-1,-1,-1,-1,-1,-1,-1,-1,-1,-1,-1,-1,-1,-1,-1,-1,-1,-1,-1,-1,-1,-1,-1],"loss_changes":[1.1202582E11,1.7457902E10,1.1184863E11,4.7220654E9,1.1114012E10,4.0097235E10,2.2857037E11,3.135619E9,9.543528E8,8.5607926E9,3.9580764E9,5.312861E10,2.4286615E9,7.922349E9,2.0327783E11,5.564703E8,2.8300984E9,1.5211735E9,2.2674272E8,6.4264264E9,2.0583741E9,2.75298E9,1.146039E9,1.5214809E10,2.9692609E10,1.3461827E9,1.0240261E9,3.181826E9,1.3622383E9,1.4610209E11,1.997847E10,6.19092E8,3.893801E8,1.2436582E9,1.7867359E9,1.1036066E8,1.4972211E8,0E0,1.3786334E8,1.6431818E9,3.825845E9,1.7887406E9,9.466317E7,1.2845238E8,1.9745792E9,4.689216E7,0E0,6.203263E9,2.6776535E9,0E0,6.364209E9,2.7488832E8,6.083323E8,1.3937161E9,1.4722867E8,5.9239055E9,6.0173536E8,8.650451E8,8.614118E7,0E0,0E0,2.4916429E8,1.2812206E9,0E0,0E0,0E0,0E0,0E0,0E0,0E0,0E0,0E0,0E0,0E0,0E0,0E0,0E0,0E0,0E0,0E0,0E0,0E0,0E0,0E0,0E0,0E0,0E0,0E0,0E0,0E0,0E0,0E0,0E0,0E0,0E0,0E0,0E0,0E0,0E0,0E0,0E0,0E0,0E0,0E0,0E0,0E0,0E0,0E0,0E0,0E0,0E0,0E0,0E0,0E0,0E0,0E0,0E0],"parents":[2147483647,0,0,1,1,2,2,3,3,4,4,5,5,6,6,7,7,8,8,9,9,10,10,11,11,12,12,13,13,14,14,15,15,16,16,17,17,18,18,19,19,20,20,21,21,22,22,23,23,24,24,25,25,26,26,27,27,28,28,29,29,30,30,31,31,32,32,33,33,34,34,35,35,36,36,38,38,39,39,40,40,41,41,42,42,43,43,44,44,45,45,47,47,48,48,50,50,51,51,52,52,53,53,54,54,55,55,56,56,57,57,58,58,61,61,62,62],"right_children":[2,4,6,8,10,12,14,16,18,20,22,24,26,28,30,32,34,36,38,40,42,44,46,48,50,52,54,56,58,60,62,64,66,68,70,72,74,-1,76,78,80,82,84,86,88,90,-1,92,94,-1,96,98,100,102,104,106,108,110,112,-1,-1,114,116,-1,-1,-1,-1,-1,-1,-1,-1,-1,-1,-1,-1,-1,-1,-1,-1,-1,-1,-1,-1,-1,-1,-1,-1,-1,-1,-1,-1,-1,-1,-1,-1,-1,-1,-1,-1,-1,-1,-1,-1,-1,-1,-1,-1,-1,-1,-1,-1,-1,-1,-1,-1,-1,-1],"split_conditions":[1.6666672E4,1.1652853E4,5E0,1.1E1,5E0,5E0,1E0,9.755667E3,8.329091E-1,5E0,1E0,3.0881756E4,1E0,9.5551145E-1,8.5E0,5E0,5E0,4E0,3E0,4E0,1.53422E4,8.4E0,2.3E1,3.8E1,1.3976194E-1,1.1E1,2.1674785E4,5E0,1E0,5.3062826E-1,2E1,4E0,1E0,4E0,5.877867E-1,8.2E0,9.755667E3,-2.4790384E2,1E0,3E0,4.72E2,1.5475625E0,7.8845733E-1,6.1E1,3E0,1.0647107E0,5.841599E2,4E0,4E0,3.4916716E3,1.0296195E0,1.1631508E0,7.4193734E-1,1.1939225E0,1E0,2E0,9.1E0,5E0,3.9E1,1.6350894E2,1.2799456E4,5E0,3.1E1,-2.9834604E2,-1.9684383E2,-2.5266365E2,-3.456661E2,-2.0072577E2,-1.168684E2,1.5487308E2,-1.1813488E2,-1.3798819E2,-3.278958E0,1.6039539E2,2.9769626E2,-7.362491E1,3.7248386E1,-2.2288206E2,-5.082507E1,6.766464E1,4.0469586E2,-5.783205E1,-2.1788069E2,-2.1978613E2,-3.0281717E2,-7.575158E0,2.4711064E2,-1.3445923E1,6.128217E2,-1.6935089E2,8.210328E0,-6.378598E1,1.962241E2,3.211323E2,5.9667194E2,1.3130936E3,7.127931E2,1.2204559E1,-1.6737662E2,3.6932397E2,9.46993E1,4.3575848E1,-1.717893E2,-1.7805803E2,-2.5316605E2,1.9611786E3,6.980666E2,1.7081915E2,7.6923883E2,-5.5736813E1,4.1663046E2,-2.3963513E2,-3.090803E1,1.3683173E3,7.402748E2,2.0953508E3,4.0842896E3],"split_indices":[13,13,1,11,1,5,2,13,3,5,10,13,10,3,0,5,1,1,1,1,13,0,11,11,3,11,13,5,10,3,11,1,11,11,3,0,13,0,2,1,11,3,3,11,11,3,0,1,1,0,3,3,3,3,11,11,0,11,11,0,0,5,11,0,0,0,0,0,0,0,0,0,0,0,0,0,0,0,0,0,0,0,0,0,0,0,0,0,0,0,0,0,0,0,0,0,0,0,0,0,0,0,0,0,0,0,0,0,0,0,0,0,0,0,0,0,0],"split_type":[0,0,0,0,0,0,0,0,0,0,0,0,0,0,0,0,0,0,0,0,0,0,0,0,0,0,0,0,0,0,0,0,0,0,0,0,0,0,0,0,0,0,0,0,0,0,0,0,0,0,0,0,0,0,0,0,0,0,0,0,0,0,0,0,0,0,0,0,0,0,0,0,0,0,0,0,0,0,0,0,0,0,0,0,0,0,0,0,0,0,0,0,0,0,0,0,0,0,0,0,0,0,0,0,0,0,0,0,0,0,0,0,0,0,0,0,0],"sum_hessian":[9.707E3,7.129E3,2.578E3,3.897E3,3.232E3,2.397E3,1.81E2,3.565E3,3.32E2,3.017E3,2.15E2,1.625E3,7.72E2,1.38E2,4.3E1,1.434E3,2.131E3,1.52E2,1.8E2,2.019E3,9.98E2,1.67E2,4.8E1,1.32E3,3.05E2,1.69E2,6.03E2,6.9E1,6.9E1,1.2E1,3.1E1,8.96E2,5.38E2,1.893E3,2.38E2,6.3E1,8.9E1,1.5E1,1.65E2,7.89E2,1.23E3,7.53E2,2.45E2,3.3E1,1.34E2,4.3E1,5E0,9.55E2,3.65E2,1E1,2.95E2,8.4E1,8.5E1,3.11E2,2.92E2,4.7E1,2.2E1,4.3E1,2.6E1,3E0,9E0,1.6E1,1.5E1,1.98E2,6.98E2,3.53E2,1.85E2,1.175E3,7.18E2,1.15E2,1.23E2,3.8E1,2.5E1,4.3E1,4.6E1,1.3E2,3.5E1,1.79E2,6.1E2,1.14E3,9E1,4.78E2,2.75E2,6E1,1.85E2,2.8E1,5E0,1.4E1,1.2E2,3.9E1,4E0,3.81E2,5.74E2,1.67E2,1.98E2,5.6E1,2.39E2,4.3E1,4.1E1,3.3E1,5.2E1,1.25E2,1.86E2,1.47E2,1.45E2,1.3E1,3.4E1,1.7E1,5E0,1.4E1,2.9E1,1.9E1,7E0,5E0,1.1E1,5E0,1E1],"tree_param":{"num_deleted":"0","num_feature":"15","num_nodes":"117","size_leaf_vector":"1"}},{"base_weights":[1.191545E2,-3.1157437E2,9.3201805E4,-2.166178E3,6.6329375E3,1.2661148E4,4.0246527E4,-3.54823E3,1.5100056E3,4.7405264E3,2.4509414E4,2.187732E4,3.9167969E3,-5.012754E3,-1.6302164E3,-2.2179597E3,4.99263E3,1.7237355E3,9.123766E3,3.1809424E4,6.149577E3,1.2563744E3,5.9148846E2,-5.8463535E3,-4.241908E3,-2.7040403E3,6.9666144E2,-1.307285E3,-5.2145596E3,8.49945E3,-1.3798237E3,6.547206E2,6.973331E3,6.4243667E3,1.5587977E4,4.2406477E4,2.0913604E4,8.807718E3,2.394845E3,-3.3101938E2,-2.7174078E2,-2.9289456E2,-1.8787952E2,-2.032653E2,-1.00175766E2,1.19392456E2,-1.2858745E2,-1.747644E2,5.17541E1,-2.3844194E2,-2.9074463E2,2.8378366E2,9.3212854E2,7.179226E1,-1.1455776E2,-6.863285E1,9.6529366E1,1.26152336E2,4.5624423E2,4.4420117E2,6.1310883E1,8.6510657E2,4.2305704E2,1.7407926E3,2.982112E3,7.7221356E2,1.2269431E3,3.605092E2,8.1559247E2,3.6557434E1,2.2228996E2],"categories":[],"categories_nodes":[],"categories_segments":[],"categories_sizes":[],"default_left":[0,0,0,0,0,0,0,0,0,0,0,0,0,0,0,0,0,0,0,0,0,0,0,0,0,0,0,0,0,0,0,0,0,0,0,0,0,0,0,0,0,0,0,0,0,0,0,0,0,0,0,0,0,0,0,0,0,0,0,0,0,0,0,0,0,0,0,0,0,0,0],"id":12,"left_children":[1,3,5,7,9,-1,11,13,15,17,19,21,-1,23,25,27,29,31,33,35,37,-1,-1,39,41,43,45,47,49,51,53,55,57,59,61,63,65,67,69,-1,-1,-1,-1,-1,-1,-1,-1,-1,-1,-1,-1,-1,-1,-1,-1,-1,-1,-1,-1,-1,-1,-1,-1,-1,-1,-1,-1,-1,-1,-1,-1],"loss_changes":[3.9170133E11,1.25265715E11,3.7113705E11,3.900463E10,6.923458E10,0E0,2.2774739E10,1.5663112E10,2.7249623E10,2.4513528E10,2.607367E10,5.1914957E8,0E0,2.0076708E9,6.041138E9,2.760315E9,2.425828E10,6.168519E9,1.3091668E10,1.5278031E10,5.4780006E8,0E0,0E0,4.4725043E8,1.2670116E9,1.56911E9,4.2291476E9,3.996076E9,3.54176E7,1.9943526E10,9.937688E8,2.3694472E9,1.7579315E9,6.829433E9,2.5656648E9,7.0816154E9,1.0287821E9,2.7799373E8,8.205306E7,0E0,0E0,0E0,0E0,0E0,0E0,0E0,0E0,0E0,0E0,0E0,0E0,0E0,0E0,0E0,0E0,0E0,0E0,0E0,0E0,0E0,0E0,0E0,0E0,0E0,0E0,0E0,0E0,0E0,0E0,0E0,0E0],"parents":[2147483647,0,0,1,1,2,2,3,3,4,4,6,6,7,7,8,8,9,9,10,10,11,11,13,13,14,14,15,15,16,16,17,17,18,18,19,19,20,20,23,23,24,24,25,25,26,26,27,27,28,28,29,29,30,30,31,31,32,32,33,33,34,34,35,35,36,36,37,37,38,38],"right_children":[2,4,6,8,10,-1,12,14,16,18,20,22,-1,24,26,28,30,32,34,36,38,-1,-1,40,42,44,46,48,50,52,54,56,58,60,62,64,66,68,70,-1,-1,-1,-1,-1,-1,-1,-1,-1,-1,-1,-1,-1,-1,-1,-1,-1,-1,-1,-1,-1,-1,-1,-1,-1,-1,-1,-1,-1,-1,-1,-1],"split_conditions":[4.151256E0,1.3551315E0,8.5E0,1.6666672E4,2.3309557E4,1.2661148E4,1.3515845E4,8.054354E-1,6.893262E-1,1.4292267E4,4E0,1.0296195E0,3.9167969E3,5.0108933E-1,1.3515845E4,1E0,4E0,2.1452708E0,1.8856442E0,3.1E1,1E0,1.2563744E3,5.9148846E2,1.0182479E4,9.755667E3,9.755667E3,4E0,4.4351614E-1,2.1674785E4,3.0881756E4,1E0,1.0103786E4,9.755667E3,4E0,4E0,2.3145542E0,1.64295E0,1.8856442E0,2.1047094E0,-3.3101938E2,-2.7174078E2,-2.9289456E2,-1.8787952E2,-2.032653E2,-1.00175766E2,1.19392456E2,-1.2858745E2,-1.747644E2,5.17541E1,-2.3844194E2,-2.9074463E2,2.8378366E2,9.3212854E2,7.179226E1,-1.1455776E2,-6.863285E1,9.6529366E1,1.26152336E2,4.5624423E2,4.4420117E2,6.1310883E1,8.6510657E2,4.2305704E2,1.7407926E3,2.982112E3,7.7221356E2,1.2269431E3,3.605092E2,8.1559247E2,3.6557434E1,2.2228996E2],"split_indices":[14,14,0,13,13,0,13,14,14,13,6,3,0,14,13,10,6,14,14,11,10,0,0,13,13,13,6,14,13,13,10,13,13,6,6,14,14,14,14,0,0,0,0,0,0,0,0,0,0,0,0,0,0,0,0,0,0,0,0,0,0,0,0,0,0,0,0,0,0,0,0],"split_type":[0,0,0,0,0,0,0,0,0,0,0,0,0,0,0,0,0,0,0,0,0,0,0,0,0,0,0,0,0,0,0,0,0,0,0,0,0,0,0,0,0,0,0,0,0,0,0,0,0,0,0,0,0,0,0,0,0,0,0,0,0,0,0,0,0,0,0,0,0,0,0],"sum_hessian":[9.768E3,9.724E3,4.4E1,7.675E3,2.049E3,1E1,3.4E1,5.578E3,2.097E3,1.854E3,1.95E2,2.4E1,1E1,3.162E3,2.416E3,1.013E3,1.084E3,1.099E3,7.55E2,1.39E2,5.6E1,1.7E1,7E0,1.516E3,1.646E3,1.653E3,7.63E2,7.78E2,2.35E2,6.99E2,3.85E2,9.14E2,1.85E2,5.34E2,2.21E2,6.9E1,7E1,3.2E1,2.4E1,5.21E2,9.95E2,3.77E2,1.269E3,5.6E2,1.093E3,5.03E2,2.6E2,4.02E2,3.76E2,1.4E2,9.5E1,5.48E2,1.51E2,9.4E1,2.91E2,3.53E2,5.61E2,6.1E1,1.24E2,3.62E2,1.72E2,1.77E2,4.4E1,5E1,1.9E1,3E1,4E1,2.8E1,4E0,1.4E1,1E1],"tree_param":{"num_deleted":"0","num_feature":"15","num_nodes":"71","size_leaf_vector":"1"}},{"base_weights":[-5.365218E0,-2.517667E3,5.0759146E3,-4.2777095E3,-7.352085E2,2.2357617E3,1.5688907E4,-4.6656587E3,-9.491875E2,-2.710595E3,1.5355361E3,-7.112033E2,5.1329424E3,1.2751151E4,4.8353574E4,-5.383031E3,-3.9775215E3,1.8104884E2,-4.519104E3,-4.29264E3,-2.0103127E3,4.0000107E2,5.1349873E3,-2.0110585E3,8.566414E2,4.417062E3,1.461303E4,8.375941E3,2.5713004E4,2.076505E4,1.2963593E5,-6.058437E3,-4.99742E3,-4.0612275E3,6.117724E2,-1.4737904E3,4.124884E3,-1.1736316E2,-4.888912E3,-3.7430244E3,-4.72337E3,-2.4262676E3,1.6129283E3,2.6264736E3,-4.2646667E2,4.0982456E3,1.8987805E4,-2.506126E3,2.8106094E3,3.3272524E3,-6.502015E2,2.3340664E3,6.384679E3,3.7342175E3,1.6401215E4,1.283196E4,6.063957E3,4.8947355E4,2.05506E4,1.1915701E4,1.7476796E3,1.1473315E4,3.3378567E3,-2.8467212E2,-3.1895175E2,-2.2568367E2,-2.7906342E2,-1.3745857E2,-2.2547105E2,-1.1297156E2,3.5074252E2,3.4022726E2,-4.5162033E1,-2.1772984E2,-2.7892868E2,-2.250386E2,-1.4959041E2,-2.5356848E2,-1.9371777E2,-8.156124E1,-1.6255888E2,2.4347154E2,-1.0807555E1,1.0752401E2,5.6489716E2,2.6876867E1,-1.0833398E2,2.9080014E2,-7.678464E1,5.353403E2,1.9376123E3,-1.7410033E2,-6.7299126E1,1.0731089E3,6.1785755E1,-1.0450513E2,2.3545854E2,-7.9098656E1,1.148407E1,3.4843296E1,2.2903601E2,1.6429967E2,4.163505E2,9.9896706E1,2.592534E2,5.5982745E2,1.0349038E3,2.2098332E2,7.707978E2,2.2121404E2,4.9097714E2,1.8426914E3,3.2143494E3,8.698709E2,1.4194115E3,8.750516E2,4.4032565E2],"categories":[],"categories_nodes":[],"categories_segments":[],"categories_sizes":[],"default_left":[0,0,0,0,0,0,0,0,0,0,0,0,0,0,0,0,0,0,0,0,0,0,0,0,0,0,0,0,0,0,0,0,0,0,0,0,0,0,0,0,0,0,0,0,0,0,0,0,0,0,0,0,0,0,0,0,0,0,0,0,0,0,0,0,0,0,0,0,0,0,0,0,0,0,0,0,0,0,0,0,0,0,0,0,0,0,0,0,0,0,0,0,0,0,0,0,0,0,0,0,0,0,0,0,0,0,0,0,0,0,0,0,0,0,0,0,0],"id":13,"left_children":[1,3,5,7,9,11,13,15,17,19,21,23,25,27,29,31,33,35,37,39,41,43,45,47,49,51,53,55,57,59,61,63,65,67,-1,69,71,-1,73,75,77,79,81,83,85,87,89,91,93,95,97,99,101,103,105,107,109,111,113,115,-1,-1,-1,-1,-1,-1,-1,-1,-1,-1,-1,-1,-1,-1,-1,-1,-1,-1,-1,-1,-1,-1,-1,-1,-1,-1,-1,-1,-1,-1,-1,-1,-1,-1,-1,-1,-1,-1,-1,-1,-1,-1,-1,-1,-1,-1,-1,-1,-1,-1,-1,-1,-1,-1,-1,-1,-1],"loss_changes":[1.248614E11,2.0529844E10,9.750611E10,4.24781E9,1.4595813E10,2.1809422E10,6.4924664E10,1.434366E9,1.3928415E9,1.9190774E9,6.186123E9,2.583832E9,8.676606E9,3.5399016E10,1.2288586E11,3.4502246E8,2.0975882E9,1.7225261E9,5.518643E7,1.0849997E8,1.8244951E9,2.1209244E9,5.1355136E9,1.66127E9,2.1427868E9,4.899242E9,1.6895529E9,4.7745454E9,1.7945428E10,4.9825526E9,7.256244E10,2.4414208E7,2.3549338E8,8.708608E8,0E0,1.2562871E9,1.057093E9,0E0,1.50144E6,1.2258022E8,6.751078E7,7.056256E8,7.456032E8,1.2635026E9,1.4120028E9,3.289685E9,3.6768154E9,7.074422E8,1.8828024E9,1.6418657E9,2.938697E8,2.1448896E9,3.6801393E9,2.4907056E7,1.4902559E9,3.409836E9,1.8778337E9,2.8250563E9,2.7435704E9,3.3211776E8,0E0,0E0,0E0,0E0,0E0,0E0,0E0,0E0,0E0,0E0,0E0,0E0,0E0,0E0,0E0,0E0,0E0,0E0,0E0,0E0,0E0,0E0,0E0,0E0,0E0,0E0,0E0,0E0,0E0,0E0,0E0,0E0,0E0,0E0,0E0,0E0,0E0,0E0,0E0,0E0,0E0,0E0,0E0,0E0,0E0,0E0,0E0,0E0,0E0,0E0,0E0,0E0,0E0,0E0,0E0,0E0,0E0],"parents":[2147483647,0,0,1,1,2,2,3,3,4,4,5,5,6,6,7,7,8,8,9,9,10,10,11,11,12,12,13,13,14,14,15,15,16,16,17,17,18,18,19,19,20,20,21,21,22,22,23,23,24,24,25,25,26,26,27,27,28,28,29,29,30,30,31,31,32,32,33,33,35,35,36,36,38,38,39,39,40,40,41,41,42,42,43,43,44,44,45,45,46,46,47,47,48,48,49,49,50,50,51,51,52,52,53,53,54,54,55,55,56,56,57,57,58,58,59,59],"right_children":[2,4,6,8,10,12,14,16,18,20,22,24,26,28,30,32,34,36,38,40,42,44,46,48,50,52,54,56,58,60,62,64,66,68,-1,70,72,-1,74,76,78,80,82,84,86,88,90,92,94,96,98,100,102,104,106,108,110,112,114,116,-1,-1,-1,-1,-1,-1,-1,-1,-1,-1,-1,-1,-1,-1,-1,-1,-1,-1,-1,-1,-1,-1,-1,-1,-1,-1,-1,-1,-1,-1,-1,-1,-1,-1,-1,-1,-1,-1,-1,-1,-1,-1,-1,-1,-1,-1,-1,-1,-1,-1,-1,-1,-1,-1,-1,-1,-1],"split_conditions":[3E0,2E0,1.8708762E4,2.3309557E4,1.4292267E4,1.1652853E4,5E0,1.2204684E4,1E0,9.755667E3,2.3309557E4,1.0103786E4,5E0,3.0881756E4,1E0,9.755667E3,9.6E0,3.0881756E4,6.931472E-1,8.7546873E-1,5E0,7.3072023E0,5E0,9.3E0,7.4193734E-1,4E0,8.4E0,7.813996E0,4.054651E-1,8.8E0,8.5E0,8.7546873E-1,1.1631508E0,7.365813E0,6.117724E2,5E0,1.3862944E0,-1.1736316E2,1.3862944E0,7.660611E3,1E0,1.2237754E0,7.2413664E0,9.4E0,1E0,1E0,1E0,8.8E0,6.340359E0,8.2E0,4E0,1.53422E4,4E0,4E0,4E0,4E0,8.6E0,8.6E0,1E0,8.1E0,1.7476796E3,1.1473315E4,3.3378567E3,-2.8467212E2,-3.1895175E2,-2.2568367E2,-2.7906342E2,-1.3745857E2,-2.2547105E2,-1.1297156E2,3.5074252E2,3.4022726E2,-4.5162033E1,-2.1772984E2,-2.7892868E2,-2.250386E2,-1.4959041E2,-2.5356848E2,-1.9371777E2,-8.156124E1,-1.6255888E2,2.4347154E2,-1.0807555E1,1.0752401E2,5.6489716E2,2.6876867E1,-1.0833398E2,2.9080014E2,-7.678464E1,5.353403E2,1.9376123E3,-1.7410033E2,-6.7299126E1,1.0731089E3,6.1785755E1,-1.0450513E2,2.3545854E2,-7.9098656E1,1.148407E1,3.4843296E1,2.2903601E2,1.6429967E2,4.163505E2,9.9896706E1,2.592534E2,5.5982745E2,1.0349038E3,2.2098332E2,7.707978E2,2.2121404E2,4.9097714E2,1.8426914E3,3.2143494E3,8.698709E2,1.4194115E3,8.750516E2,4.4032565E2],"split_indices":[8,8,13,13,13,13,1,13,10,13,13,13,1,13,2,13,0,13,3,3,1,4,1,0,3,8,0,4,3,0,0,3,3,4,0,1,3,0,3,13,2,3,4,0,10,10,2,0,4,0,8,13,1,8,8,1,0,0,2,0,0,0,0,0,0,0,0,0,0,0,0,0,0,0,0,0,0,0,0,0,0,0,0,0,0,0,0,0,0,0,0,0,0,0,0,0,0,0,0,0,0,0,0,0,0,0,0,0,0,0,0,0,0,0,0,0,0],"split_type":[0,0,0,0,0,0,0,0,0,0,0,0,0,0,0,0,0,0,0,0,0,0,0,0,0,0,0,0,0,0,0,0,0,0,0,0,0,0,0,0,0,0,0,0,0,0,0,0,0,0,0,0,0,0,0,0,0,0,0,0,0,0,0,0,0,0,0,0,0,0,0,0,0,0,0,0,0,0,0,0,0,0,0,0,0,0,0,0,0,0,0,0,0,0,0,0,0,0,0,0,0,0,0,0,0,0,0,0,0,0,0,0,0,0,0,0,0],"sum_hessian":[9.779E3,6.544E3,3.235E3,3.292E3,3.252E3,2.553E3,6.82E2,2.948E3,3.44E2,1.739E3,1.513E3,1.266E3,1.287E3,6.27E2,5.5E1,1.44E3,1.508E3,2.62E2,8.2E1,5.32E2,1.207E3,1.151E3,3.62E2,6.92E2,5.74E2,1.198E3,8.9E1,4.7E2,1.57E2,4.2E1,1.3E1,5.18E2,9.22E2,1.501E3,7E0,1.85E2,7.7E1,1.3E1,6.9E1,2.38E2,2.94E2,1.083E3,1.24E2,3.11E2,8.4E2,3.38E2,2.4E1,6.28E2,6.4E1,2.17E2,3.57E2,5.83E2,6.15E2,1.3E1,7.6E1,1.59E2,3.11E2,2.7E1,1.3E2,2.7E1,1.5E1,4E0,9E0,2.51E2,2.67E2,5.09E2,4.13E2,3.84E2,1.117E3,1.7E2,1.5E1,5E1,2.7E1,4.3E1,2.6E1,1.16E2,1.22E2,2.05E2,8.9E1,5.53E2,5.3E2,4.4E1,8E1,2.96E2,1.5E1,5.41E2,2.99E2,2.59E2,7.9E1,1.8E1,6E0,3.4E2,2.88E2,4E0,6E1,4.4E1,1.73E2,1.73E2,1.84E2,3.38E2,2.45E2,2.38E2,3.77E2,7E0,6E0,3.6E1,4E1,3.8E1,1.21E2,2.18E2,9.3E1,1.7E1,1E1,9.5E1,3.5E1,8E0,1.9E1],"tree_param":{"num_deleted":"0","num_feature":"15","num_nodes":"117","size_leaf_vector":"1"}},{"base_weights":[1.3134328E2,-2.353018E3,5.2578735E3,-4.0667085E3,-6.3444995E2,2.4812087E3,1.8996967E4,-4.6293716E3,-1.9308491E3,-2.5672039E3,1.641075E3,3.7800177E2,6.887954E3,1.3228382E4,6.379399E4,-5.7596064E3,-4.3456807E3,-3.3590571E3,8.631737E1,-4.024473E3,-1.8938002E3,1.0118404E3,1.1818885E4,-1.9204082E3,1.7412689E3,1.0091507E4,4.665292E3,2.4122691E4,7.227194E3,1.998012E4,1.6735045E5,-4.210981E3,-2.903326E2,-3.871052E3,-4.939143E3,-2.6851226E3,-4.506638E3,-8.85216E2,5.7746743E3,-3.5773909E3,-4.4029995E3,-2.2553274E3,1.2353693E3,4.8283847E2,5.2845825E3,4.492291E3,3.8189547E4,-2.3650786E3,2.8200742E3,1.2570112E3,8.262631E3,4.9794014E3,1.1861592E4,2.7528142E3,6.5895664E3,4.8603676E4,1.9125578E4,5.0059453E3,1.2030273E4,1.14145E4,3.425654E4,1.2696676E4,3.6345312E3,-2.4488469E2,-6.543127E1,-2.3653523E2,-1.6796751E2,-2.4041158E2,-2.8932574E2,-1.6811913E2,8.533526E1,-1.71069E2,-2.4592459E2,-9.500414E1,1.0464446E2,1.7085257E2,6.488676E2,-1.9030852E2,-5.7026844E1,-2.3825883E2,-1.8039226E2,-1.2756901E2,4.793252E1,-2.559552E1,1.7660132E2,-3.9245125E1,5.8261898E1,6.0837256E2,-7.461355E1,4.2341373E2,-3.9146008E1,5.4212085E2,3.721827E3,-1.7042259E2,-6.587069E1,6.3518562E1,6.173455E2,-1.0298965E1,1.3657704E2,2.0191417E2,5.556759E2,-1.7015813E2,2.8548843E2,4.5344733E2,7.113678E2,4.0307065E2,1.007862E2,1.9042784E2,3.9036694E2,1.8242694E3,3.0860466E3,7.785322E2,1.3474042E3,1.1842293E2,3.4958664E2,8.7540204E2,4.180257E2,8.908217E2,4.063631E2,1.1086063E3,1.964498E3],"categories":[],"categories_nodes":[],"categories_segments":[],"categories_sizes":[],"default_left":[0,0,0,0,0,0,0,0,0,0,0,0,0,0,0,0,0,0,0,0,0,0,0,0,0,0,0,0,0,0,0,0,0,0,0,0,0,0,0,0,0,0,0,0,0,0,0,0,0,0,0,0,0,0,0,0,0,0,0,0,0,0,0,0,0,0,0,0,0,0,0,0,0,0,0,0,0,0,0,0,0,0,0,0,0,0,0,0,0,0,0,0,0,0,0,0,0,0,0,0,0,0,0,0,0,0,0,0,0,0,0,0,0,0,0,0,0,0,0,0,0],"id":14,"left_children":[1,3,5,7,9,11,13,15,17,19,21,23,25,27,29,31,33,35,37,39,41,43,45,47,49,51,53,55,57,59,61,63,-1,65,67,69,71,73,75,77,79,81,83,85,87,89,91,93,95,97,99,101,103,105,107,109,111,113,115,117,119,-1,-1,-1,-1,-1,-1,-1,-1,-1,-1,-1,-1,-1,-1,-1,-1,-1,-1,-1,-1,-1,-1,-1,-1,-1,-1,-1,-1,-1,-1,-1,-1,-1,-1,-1,-1,-1,-1,-1,-1,-1,-1,-1,-1,-1,-1,-1,-1,-1,-1,-1,-1,-1,-1,-1,-1,-1,-1,-1,-1],"loss_changes":[1.2466111E11,1.9414417E10,1.2183847E11,3.9581082E9,1.4486924E10,2.46418E10,1.379252E11,8.124703E8,1.9881341E9,1.7401272E9,9.67764E9,5.646502E9,6.0693586E9,3.101134E10,2.7342604E11,1.3508608E7,5.701427E8,3.0034995E8,1.5911972E9,7.93559E7,1.3829484E9,3.2206193E9,1.6830666E10,1.4211059E9,3.5613338E9,3.1170806E9,1.8550467E9,1.9744915E10,3.236442E9,4.989573E9,1.2906827E11,3.145872E7,0E0,4.974551E8,7.489536E7,7.7016166E8,4.932224E7,7.474822E8,6.688644E8,1.4228122E8,6.920346E7,1.04339405E9,5.114469E8,1.0995988E9,7.3412966E9,1.4748215E9,1.8026693E10,6.66676E8,8.40612E8,2.2742758E9,8.9448294E8,5.826875E8,1.5887196E9,9.893687E8,8.2708275E8,2.1989212E9,3.5291996E9,1.0990234E9,1.8035241E9,4.65494E8,1.0206822E8,0E0,0E0,0E0,0E0,0E0,0E0,0E0,0E0,0E0,0E0,0E0,0E0,0E0,0E0,0E0,0E0,0E0,0E0,0E0,0E0,0E0,0E0,0E0,0E0,0E0,0E0,0E0,0E0,0E0,0E0,0E0,0E0,0E0,0E0,0E0,0E0,0E0,0E0,0E0,0E0,0E0,0E0,0E0,0E0,0E0,0E0,0E0,0E0,0E0,0E0,0E0,0E0,0E0,0E0,0E0,0E0,0E0,0E0,0E0,0E0],"parents":[2147483647,0,0,1,1,2,2,3,3,4,4,5,5,6,6,7,7,8,8,9,9,10,10,11,11,12,12,13,13,14,14,15,15,16,16,17,17,18,18,19,19,20,20,21,21,22,22,23,23,24,24,25,25,26,26,27,27,28,28,29,29,30,30,31,31,33,33,34,34,35,35,36,36,37,37,38,38,39,39,40,40,41,41,42,42,43,43,44,44,45,45,46,46,47,47,48,48,49,49,50,50,51,51,52,52,53,53,54,54,55,55,56,56,57,57,58,58,59,59,60,60],"right_children":[2,4,6,8,10,12,14,16,18,20,22,24,26,28,30,32,34,36,38,40,42,44,46,48,50,52,54,56,58,60,62,64,-1,66,68,70,72,74,76,78,80,82,84,86,88,90,92,94,96,98,100,102,104,106,108,110,112,114,116,118,120,-1,-1,-1,-1,-1,-1,-1,-1,-1,-1,-1,-1,-1,-1,-1,-1,-1,-1,-1,-1,-1,-1,-1,-1,-1,-1,-1,-1,-1,-1,-1,-1,-1,-1,-1,-1,-1,-1,-1,-1,-1,-1,-1,-1,-1,-1,-1,-1,-1,-1,-1,-1,-1,-1,-1,-1,-1,-1,-1,-1],"split_conditions":[3E0,2E0,2.1674785E4,1.8708762E4,1.4292267E4,1.4862044E4,5E0,9.755667E3,8.6E0,9.755667E3,5E0,1.0103786E4,8.7546873E-1,2E0,1E0,2.6236427E-1,1.1939225E0,1E0,5E0,8.7546873E-1,5E0,3.0881756E4,1E0,9.3E0,5E0,4E0,8.5E0,4.054651E-1,4E1,8.8E0,8.5E0,7E0,-2.903326E2,4E0,2.1282318E0,3.0881756E4,2.1674785E4,3.0881756E4,1E0,8E0,1E0,4E1,4E0,4E0,5E0,1E0,2.1674785E4,4E0,9.755667E3,4E0,2E0,7.4E0,4E0,9.1629076E-1,4E0,8.6E0,1E0,4E0,9.5551145E-1,8.1E0,1.3976194E-1,1.2696676E4,3.6345312E3,-2.4488469E2,-6.543127E1,-2.3653523E2,-1.6796751E2,-2.4041158E2,-2.8932574E2,-1.6811913E2,8.533526E1,-1.71069E2,-2.4592459E2,-9.500414E1,1.0464446E2,1.7085257E2,6.488676E2,-1.9030852E2,-5.7026844E1,-2.3825883E2,-1.8039226E2,-1.2756901E2,4.793252E1,-2.559552E1,1.7660132E2,-3.9245125E1,5.8261898E1,6.0837256E2,-7.461355E1,4.2341373E2,-3.9146008E1,5.4212085E2,3.721827E3,-1.7042259E2,-6.587069E1,6.3518562E1,6.173455E2,-1.0298965E1,1.3657704E2,2.0191417E2,5.556759E2,-1.7015813E2,2.8548843E2,4.5344733E2,7.113678E2,4.0307065E2,1.007862E2,1.9042784E2,3.9036694E2,1.8242694E3,3.0860466E3,7.785322E2,1.3474042E3,1.1842293E2,3.4958664E2,8.7540204E2,4.180257E2,8.908217E2,4.063631E2,1.1086063E3,1.964498E3],"split_indices":[8,8,13,13,13,13,1,13,0,13,1,13,3,11,2,3,3,10,1,3,1,13,2,0,1,1,0,3,11,0,0,11,0,1,3,13,13,13,2,11,2,11,11,1,5,10,13,8,13,8,11,0,8,3,1,0,2,1,3,0,3,0,0,0,0,0,0,0,0,0,0,0,0,0,0,0,0,0,0,0,0,0,0,0,0,0,0,0,0,0,0,0,0,0,0,0,0,0,0,0,0,0,0,0,0,0,0,0,0,0,0,0,0,0,0,0,0,0,0,0,0],"split_type":[0,0,0,0,0,0,0,0,0,0,0,0,0,0,0,0,0,0,0,0,0,0,0,0,0,0,0,0,0,0,0,0,0,0,0,0,0,0,0,0,0,0,0,0,0,0,0,0,0,0,0,0,0,0,0,0,0,0,0,0,0,0,0,0,0,0,0,0,0,0,0,0,0,0,0,0,0,0,0,0,0,0,0,0,0,0,0,0,0,0,0,0,0,0,0,0,0,0,0,0,0,0,0,0,0,0,0,0,0,0,0,0,0,0,0,0,0,0,0,0,0],"sum_hessian":[9.786E3,6.592E3,3.194E3,3.3E3,3.292E3,2.658E3,5.36E2,2.611E3,6.89E2,1.78E3,1.512E3,1.8E3,8.58E2,4.76E2,6E1,5.2E2,2.091E3,4.03E2,2.86E2,5.61E2,1.219E3,1.425E3,8.7E1,6.7E2,1.13E3,3.5E2,5.08E2,1.68E2,3.08E2,4.3E1,1.7E1,1.8E1,5.02E2,1.166E3,9.25E2,2.56E2,1.47E2,2.45E2,4.1E1,2.62E2,2.99E2,1.093E3,1.26E2,1.269E3,1.56E2,6.9E1,1.8E1,6.13E2,5.7E1,1.053E3,7.7E1,9.1E1,2.59E2,2.56E2,2.52E2,2.7E1,1.41E2,2.12E2,9.6E1,2.8E1,1.5E1,8E0,9E0,1.4E1,4E0,4.32E2,7.34E2,8.07E2,1.18E2,2.22E2,3.4E1,4.3E1,1.04E2,1.83E2,6.2E1,3.2E1,9E0,2.39E2,2.3E1,2.02E2,9.7E1,1.001E3,9.2E1,7.2E1,5.4E1,4.44E2,8.25E2,7.7E1,7.9E1,3.9E1,3E1,1.1E1,7E0,3.06E2,3.07E2,5E1,7E0,5.29E2,5.24E2,3.2E1,4.5E1,7E0,8.4E1,1.21E2,1.38E2,3E1,2.26E2,7.8E1,1.74E2,1.6E1,1.1E1,9.9E1,4.2E1,9.2E1,1.2E2,3.7E1,5.9E1,8E0,2E1,6E0,9E0],"tree_param":{"num_deleted":"0","num_feature":"15","num_nodes":"121","size_leaf_vector":"1"}},{"base_weights":[6.011678E1,-2.2445586E3,4.761578E3,-3.866237E3,-5.804479E2,2.3719617E3,1.7459102E4,-4.229216E3,-8.727754E2,-2.4505034E3,1.5637212E3,-1.0657111E2,5.7040645E3,1.2337397E4,6.203676E4,-4.9030513E3,-3.5877256E3,-4.1134155E3,-2.4883692E0,-3.8505469E3,-1.8235961E3,9.266253E2,1.1439025E4,-1.8083739E3,1.2801339E3,8.703591E3,3.8602312E3,2.2600217E4,6.8201963E3,1.9989074E4,1.6442178E5,-5.488729E3,-4.553345E3,-3.665929E3,5.8010297E2,-1.0764587E2,-4.5213823E3,3.7822224E3,-1.6654553E3,-1.5366924E3,-3.961611E3,-2.1344233E3,9.970079E2,3.6270303E2,5.309656E3,4.561245E3,3.414775E4,-2.2692942E3,3.1986511E3,7.708175E2,8.379169E3,3.1511143E3,1.0539166E4,2.7565798E3,6.682832E3,4.570206E4,1.7949111E4,4.4008594E3,1.1566474E4,1.1510792E4,3.2221715E4,1.2265175E4,3.149367E3,-2.5398778E2,-2.9062473E2,-2.0622154E2,-2.5363428E2,-1.2601615E2,-2.0365132E2,-1.9976118E2,-2.5939978E2,2.8897714E2,-2.0585413E1,-1.4123004E2,1.3660164E1,-1.2224033E2,1.3831645E2,-2.8885284E2,-1.9297209E2,-1.20754456E2,4.0867916E1,-3.556465E1,1.6443456E2,-4.6849934E1,5.2386566E1,5.77507E2,-7.394686E1,1.03117516E2,5.016609E2,4.1581406E2,3.3832837E3,-1.6379008E2,-5.7449978E1,1.0054907E3,8.015568E1,-9.570576E1,7.374088E1,5.4035406E2,7.4109764E1,8.453701E1,2.7837885E2,3.6182516E2,6.495355E2,7.077241E1,2.260128E2,3.7395938E2,-8.923565E1,1.7952334E3,2.8893706E3,7.2643787E2,1.2811862E3,1.0316129E2,3.1367303E2,8.3758887E2,4.0590967E2,4.2644064E2,9.517623E2,1.0341436E3,1.8808085E3],"categories":[],"categories_nodes":[],"categories_segments":[],"categories_sizes":[],"default_left":[0,0,0,0,0,0,0,0,0,0,0,0,0,0,0,0,0,0,0,0,0,0,0,0,0,0,0,0,0,0,0,0,0,0,0,0,0,0,0,0,0,0,0,0,0,0,0,0,0,0,0,0,0,0,0,0,0,0,0,0,0,0,0,0,0,0,0,0,0,0,0,0,0,0,0,0,0,0,0,0,0,0,0,0,0,0,0,0,0,0,0,0,0,0,0,0,0,0,0,0,0,0,0,0,0,0,0,0,0,0,0,0,0,0,0,0,0,0,0],"id":15,"left_children":[1,3,5,7,9,11,13,15,17,19,21,23,25,27,29,31,33,35,37,39,41,43,45,47,49,51,53,55,57,59,61,63,65,67,-1,-1,69,71,73,75,77,79,81,83,85,87,89,91,93,95,97,99,101,103,105,107,109,111,113,115,117,-1,-1,-1,-1,-1,-1,-1,-1,-1,-1,-1,-1,-1,-1,-1,-1,-1,-1,-1,-1,-1,-1,-1,-1,-1,-1,-1,-1,-1,-1,-1,-1,-1,-1,-1,-1,-1,-1,-1,-1,-1,-1,-1,-1,-1,-1,-1,-1,-1,-1,-1,-1,-1,-1,-1,-1,-1,-1],"loss_changes":[1.0547108E11,1.7625356E10,9.711435E10,3.590656E9,1.2935165E10,2.2266135E10,1.1498961E11,1.2575744E9,1.0124723E9,1.5052493E9,9.445547E9,3.653078E9,6.326624E9,2.5665511E10,2.2057614E11,2.691195E8,1.8421883E9,5.105139E7,1.793752E9,1.3062861E8,1.047179E9,3.4905692E9,1.4057133E10,1.6112069E9,3.077694E9,4.420688E9,2.2058066E9,1.6264094E10,3.3709844E9,3.5701443E9,1.0761185E11,4.091597E7,1.8066842E8,6.930248E8,0E0,0E0,1.017984E6,7.31146E8,4.45715E8,1.0836165E8,7.174298E7,8.9174426E8,4.6821078E8,1.1165683E9,6.8377037E9,9.5015245E8,1.7619427E10,7.14507E8,1.559721E9,1.5093066E9,9.384599E8,3.7876928E8,2.5616835E9,1.2117414E9,1.3619845E9,1.00367974E9,3.1451996E9,8.581688E8,1.6520417E9,3.761554E8,1.5567155E8,0E0,0E0,0E0,0E0,0E0,0E0,0E0,0E0,0E0,0E0,0E0,0E0,0E0,0E0,0E0,0E0,0E0,0E0,0E0,0E0,0E0,0E0,0E0,0E0,0E0,0E0,0E0,0E0,0E0,0E0,0E0,0E0,0E0,0E0,0E0,0E0,0E0,0E0,0E0,0E0,0E0,0E0,0E0,0E0,0E0,0E0,0E0,0E0,0E0,0E0,0E0,0E0,0E0,0E0,0E0,0E0,0E0,0E0],"parents":[2147483647,0,0,1,1,2,2,3,3,4,4,5,5,6,6,7,7,8,8,9,9,10,10,11,11,12,12,13,13,14,14,15,15,16,16,17,17,18,18,19,19,20,20,21,21,22,22,23,23,24,24,25,25,26,26,27,27,28,28,29,29,30,30,31,31,32,32,33,33,36,36,37,37,38,38,39,39,40,40,41,41,42,42,43,43,44,44,45,45,46,46,47,47,48,48,49,49,50,50,51,51,52,52,53,53,54,54,55,55,56,56,57,57,58,58,59,59,60,60],"right_children":[2,4,6,8,10,12,14,16,18,20,22,24,26,28,30,32,34,36,38,40,42,44,46,48,50,52,54,56,58,60,62,64,66,68,-1,-1,70,72,74,76,78,80,82,84,86,88,90,92,94,96,98,100,102,104,106,108,110,112,114,116,118,-1,-1,-1,-1,-1,-1,-1,-1,-1,-1,-1,-1,-1,-1,-1,-1,-1,-1,-1,-1,-1,-1,-1,-1,-1,-1,-1,-1,-1,-1,-1,-1,-1,-1,-1,-1,-1,-1,-1,-1,-1,-1,-1,-1,-1,-1,-1,-1,-1,-1,-1,-1,-1,-1,-1,-1,-1,-1],"split_conditions":[3E0,2E0,2.1674785E4,2.3309557E4,1.4292267E4,1.2303549E4,5E0,1.2204684E4,1E0,9.755667E3,5E0,1.0103786E4,8.329091E-1,2E0,1E0,9.755667E3,9.6E0,6.931472E-1,2E0,2.6236427E-1,5E0,3.0881756E4,1E0,9.3E0,5E0,4E0,1.6666672E4,4.054651E-1,4E1,8.8E0,8.5E0,8.7546873E-1,1.2237754E0,7.365813E0,5.8010297E2,-1.0764587E2,1.3862944E0,1.3862944E0,8.6E0,8E0,3E0,4E1,4E0,4E0,5E0,8.9E0,7.1196356E0,8.8E0,6.340359E0,8.2E0,8.205765E0,1.6666672E4,4E0,8.5E0,2.1860514E0,8.6E0,1E0,4E0,9.5551145E-1,4E1,1.3976194E-1,1.2265175E4,3.149367E3,-2.5398778E2,-2.9062473E2,-2.0622154E2,-2.5363428E2,-1.2601615E2,-2.0365132E2,-1.9976118E2,-2.5939978E2,2.8897714E2,-2.0585413E1,-1.4123004E2,1.3660164E1,-1.2224033E2,1.3831645E2,-2.8885284E2,-1.9297209E2,-1.20754456E2,4.0867916E1,-3.556465E1,1.6443456E2,-4.6849934E1,5.2386566E1,5.77507E2,-7.394686E1,1.03117516E2,5.016609E2,4.1581406E2,3.3832837E3,-1.6379008E2,-5.7449978E1,1.0054907E3,8.015568E1,-9.570576E1,7.374088E1,5.4035406E2,7.4109764E1,8.453701E1,2.7837885E2,3.6182516E2,6.495355E2,7.077241E1,2.260128E2,3.7395938E2,-8.923565E1,1.7952334E3,2.8893706E3,7.2643787E2,1.2811862E3,1.0316129E2,3.1367303E2,8.3758887E2,4.0590967E2,4.2644064E2,9.517623E2,1.0341436E3,1.8808085E3],"split_indices":[8,8,13,13,13,13,1,13,11,13,1,13,3,11,2,13,0,3,11,3,1,13,2,0,1,1,13,3,11,0,0,3,3,4,0,0,3,3,0,11,1,11,11,1,5,0,4,0,4,0,4,13,8,0,3,0,2,1,3,11,3,0,0,0,0,0,0,0,0,0,0,0,0,0,0,0,0,0,0,0,0,0,0,0,0,0,0,0,0,0,0,0,0,0,0,0,0,0,0,0,0,0,0,0,0,0,0,0,0,0,0,0,0,0,0,0,0,0,0],"split_type":[0,0,0,0,0,0,0,0,0,0,0,0,0,0,0,0,0,0,0,0,0,0,0,0,0,0,0,0,0,0,0,0,0,0,0,0,0,0,0,0,0,0,0,0,0,0,0,0,0,0,0,0,0,0,0,0,0,0,0,0,0,0,0,0,0,0,0,0,0,0,0,0,0,0,0,0,0,0,0,0,0,0,0,0,0,0,0,0,0,0,0,0,0,0,0,0,0,0,0,0,0,0,0,0,0,0,0,0,0,0,0,0,0,0,0,0,0,0,0],"sum_hessian":[9.732E3,6.531E3,3.201E3,3.307E3,3.224E3,2.695E3,5.06E2,2.949E3,3.58E2,1.722E3,1.502E3,1.546E3,1.149E3,4.55E2,5.1E1,1.435E3,1.514E3,7.5E1,2.83E2,5.31E2,1.191E3,1.412E3,9E1,6.94E2,8.52E2,4.36E2,7.13E2,1.58E2,2.97E2,3.7E1,1.4E1,5.31E2,9.04E2,1.507E3,7E0,1.4E1,6.1E1,8.6E1,1.97E2,2.5E1,5.06E2,1.073E3,1.18E2,1.252E3,1.6E2,7E1,2E1,6.36E2,5.8E1,7.96E2,5.6E1,1.09E2,3.27E2,5.14E2,1.99E2,2.5E1,1.33E2,1.98E2,9.9E1,2.3E1,1.4E1,7E0,7E0,2.42E2,2.89E2,5E2,4.04E2,3.97E2,1.11E3,3.8E1,2.3E1,5.8E1,2.8E1,1.23E2,7.4E1,2.1E1,4E0,2.4E1,4.82E2,9.8E2,9.3E1,6.8E1,5E1,4.32E2,8.2E2,8.3E1,7.7E1,4.9E1,2.1E1,1.2E1,8E0,3.34E2,3.02E2,4E0,5.4E1,1.65E2,6.31E2,4.1E1,1.5E1,6.9E1,4E1,1.41E2,1.86E2,2.93E2,2.21E2,1.82E2,1.7E1,1.6E1,9E0,9.4E1,3.9E1,8.9E1,1.09E2,3.8E1,6.1E1,1.8E1,5E0,6E0,8E0],"tree_param":{"num_deleted":"0","num_feature":"15","num_nodes":"119","size_leaf_vector":"1"}},{"base_weights":[-2.8688875E1,-4.0726E2,4.452302E4,-2.7668325E3,3.281678E3,9.238221E3,2.8970297E4,-3.4579165E3,5.3343427E2,2.0508186E3,1.337633E4,1.9608617E4,2.876312E3,-4.4380513E3,-2.286292E3,-1.4743416E3,3.7009255E3,4.229715E1,4.8860933E3,2.050777E4,2.2638794E3,1.58637E4,1.2965385E3,-5.141449E3,-3.9154365E3,-3.2539958E3,-8.5646075E2,-6.3144226E2,-4.0705308E3,6.854653E3,-2.6584575E3,-1.1075565E3,3.2502854E3,3.2729912E3,1.1396777E4,1.5940643E4,2.8539225E4,-2.2095543E2,5.4973228E3,1.7274281E4,5.0227878E2,-2.893107E2,-2.4322815E2,-2.6122464E2,-1.7725209E2,-2.0399892E2,-1.4103366E2,6.7625756E0,-1.4716498E2,-1.1493133E2,1.23284546E2,-1.2867696E2,-2.4422087E2,2.5047534E2,5.819508E2,-4.095078E0,-2.1929973E2,-1.2831804E2,-2.0961946E1,4.7771126E1,2.3314159E2,2.7360803E2,-2.3728222E1,4.6449503E2,7.971741E2,5.0639914E2,1.00950244E3,1.0305065E3,1.7593143E3,9.1626236E1,-8.499673E1,2.3342532E2,7.669108E2,9.958488E2,6.858554E2],"categories":[],"categories_nodes":[],"categories_segments":[],"categories_sizes":[],"default_left":[0,0,0,0,0,0,0,0,0,0,0,0,0,0,0,0,0,0,0,0,0,0,0,0,0,0,0,0,0,0,0,0,0,0,0,0,0,0,0,0,0,0,0,0,0,0,0,0,0,0,0,0,0,0,0,0,0,0,0,0,0,0,0,0,0,0,0,0,0,0,0,0,0,0,0],"id":16,"left_children":[1,3,5,7,9,-1,11,13,15,17,19,21,-1,23,25,27,29,31,33,35,37,39,-1,41,43,45,47,49,51,53,55,57,59,61,63,65,67,69,71,73,-1,-1,-1,-1,-1,-1,-1,-1,-1,-1,-1,-1,-1,-1,-1,-1,-1,-1,-1,-1,-1,-1,-1,-1,-1,-1,-1,-1,-1,-1,-1,-1,-1,-1,-1],"loss_changes":[1.6414107E11,8.400574E10,1.7350042E11,1.3426405E10,4.6753055E10,0E0,1.8921845E10,5.578871E9,6.492262E9,1.9116931E10,3.2365904E10,9.6184115E8,0E0,9.536553E8,3.0675395E9,1.3651327E9,7.9603046E9,7.2556175E9,1.4582041E10,8.678547E9,1.2947812E9,1.465385E8,0E0,1.7287373E8,7.204147E8,4.620155E8,1.8567788E9,2.4479995E9,1.7384166E8,2.2810726E9,5.87185E8,1.4528906E9,1.6779351E9,9.208363E9,2.495783E9,3.7722685E9,3.965567E9,2.8252413E8,4.9933235E8,8.808448E6,0E0,0E0,0E0,0E0,0E0,0E0,0E0,0E0,0E0,0E0,0E0,0E0,0E0,0E0,0E0,0E0,0E0,0E0,0E0,0E0,0E0,0E0,0E0,0E0,0E0,0E0,0E0,0E0,0E0,0E0,0E0,0E0,0E0,0E0,0E0],"parents":[2147483647,0,0,1,1,2,2,3,3,4,4,6,6,7,7,8,8,9,9,10,10,11,11,13,13,14,14,15,15,16,16,17,17,18,18,19,19,20,20,21,21,23,23,24,24,25,25,26,26,27,27,28,28,29,29,30,30,31,31,32,32,33,33,34,34,35,35,36,36,37,37,38,38,39,39],"right_children":[2,4,6,8,10,-1,12,14,16,18,20,22,-1,24,26,28,30,32,34,36,38,40,-1,42,44,46,48,50,52,54,56,58,60,62,64,66,68,70,72,74,-1,-1,-1,-1,-1,-1,-1,-1,-1,-1,-1,-1,-1,-1,-1,-1,-1,-1,-1,-1,-1,-1,-1,-1,-1,-1,-1,-1,-1,-1,-1,-1,-1,-1,-1],"split_conditions":[3.2929676E0,1.0444595E0,8.5E0,2.1674785E4,2.3309557E4,9.238221E3,2.1674785E4,6.392002E-1,6.893262E-1,1.4292267E4,5E0,1.2204684E4,2.876312E3,1.0915879E4,1.2303549E4,5E0,5E0,1.6757691E0,1.7488306E0,1.5056057E0,1.3164637E0,5E0,1.2965385E3,3.455856E-1,3.2217163E-1,9.755667E3,5E0,4.836426E-1,1E0,3.0881756E4,1E0,9.755667E3,1.0103786E4,5E0,2.2125132E0,3.0881756E4,3.0881756E4,1E0,2.5751157E0,7.1196356E0,5.0227878E2,-2.893107E2,-2.4322815E2,-2.6122464E2,-1.7725209E2,-2.0399892E2,-1.4103366E2,6.7625756E0,-1.4716498E2,-1.1493133E2,1.23284546E2,-1.2867696E2,-2.4422087E2,2.5047534E2,5.819508E2,-4.095078E0,-2.1929973E2,-1.2831804E2,-2.0961946E1,4.7771126E1,2.3314159E2,2.7360803E2,-2.3728222E1,4.6449503E2,7.971741E2,5.0639914E2,1.00950244E3,1.0305065E3,1.7593143E3,9.1626236E1,-8.499673E1,2.3342532E2,7.669108E2,9.958488E2,6.858554E2],"split_indices":[14,14,0,13,13,0,13,14,14,13,5,13,0,13,13,5,5,14,14,14,14,5,0,14,14,13,5,14,10,13,10,13,13,5,14,13,13,10,14,4,0,0,0,0,0,0,0,0,0,0,0,0,0,0,0,0,0,0,0,0,0,0,0,0,0,0,0,0,0,0,0,0,0,0,0],"split_type":[0,0,0,0,0,0,0,0,0,0,0,0,0,0,0,0,0,0,0,0,0,0,0,0,0,0,0,0,0,0,0,0,0,0,0,0,0,0,0,0,0,0,0,0,0,0,0,0,0,0,0,0,0,0,0,0,0,0,0,0,0,0,0,0,0,0,0,0,0,0,0,0,0,0,0],"sum_hessian":[9.73E3,9.649E3,8.1E1,5.885E3,3.764E3,7E0,7.4E1,4.866E3,1.019E3,3.356E3,4.08E2,5.7E1,1.7E1,2.648E3,2.218E3,6.24E2,3.95E2,1.965E3,1.391E3,2.48E2,1.6E2,3.8E1,1.9E1,1.125E3,1.523E3,1.322E3,8.96E2,4.72E2,1.52E2,2.64E2,1.31E2,1.447E3,5.18E2,1.116E3,2.75E2,1.6E2,8.8E1,9.1E1,6.9E1,2.9E1,9E0,3.32E2,7.93E2,3.33E2,1.19E3,4.52E2,8.7E2,6.08E2,2.88E2,3.07E2,1.65E2,5.5E1,9.7E1,1.92E2,7.2E1,5.3E1,7.8E1,4.63E2,9.84E2,1.98E2,3.2E2,7.03E2,4.13E2,1.9E2,8.5E1,6.9E1,9.1E1,4.2E1,4.6E1,3.8E1,5.3E1,6.5E1,4E0,1.4E1,1.5E1],"tree_param":{"num_deleted":"0","num_feature":"15","num_nodes":"75","size_leaf_vector":"1"}},{"base_weights":[4.133558E1,-2.4523535E2,6.0239023E4,-2.1957964E3,4.2028687E3,1.8921711E5,2.8106342E4,-3.6019001E3,-6.029132E2,2.7061504E3,1.0646016E4,4.667111E3,1.1079876E4,1.7377502E4,4.7401984E4,-4.500632E3,-3.0396787E3,5.942702E2,-2.7744077E3,4.143114E3,-1.0869154E3,3.2442127E4,9.513424E3,2.0644635E4,5.5227655E2,2.7323606E3,8.719199E2,-5.277716E3,-4.1624453E3,-2.142954E3,-4.2330366E3,-1.1743756E3,1.0683335E3,-2.4519297E3,-3.8925857E3,3.4952468E3,6.275777E3,-2.0936523E2,-2.6144426E3,1.3958942E4,2.7191426E3,1.0955172E4,3.7248906E3,6.6046893E2,1.1892421E3,-3.0807095E2,-2.5297464E2,-1.9911983E2,-2.5222179E2,-1.4400996E2,-7.645201E1,-1.7047406E2,-2.2479048E2,-9.475678E0,-1.6284564E2,2.3819865E2,1.4804746E1,-1.5189983E2,-9.602066E1,-1.4145987E2,-2.1225835E2,1.9527893E2,8.683841E1,3.4892282E2,1.2572406E2,-3.359432E1,1.777841E2,-1.8945738E2,-5.4684517E1,1.0556445E3,2.0829356E2,4.8105917E2,8.321071E2,9.834564E1,6.1539185E2],"categories":[],"categories_nodes":[],"categories_segments":[],"categories_sizes":[],"default_left":[0,0,0,0,0,0,0,0,0,0,0,0,0,0,0,0,0,0,0,0,0,0,0,0,0,0,0,0,0,0,0,0,0,0,0,0,0,0,0,0,0,0,0,0,0,0,0,0,0,0,0,0,0,0,0,0,0,0,0,0,0,0,0,0,0,0,0,0,0,0,0,0,0,0,0],"id":17,"left_children":[1,3,5,7,9,11,13,15,17,19,21,-1,-1,23,25,27,29,31,33,35,37,39,41,43,-1,-1,-1,45,47,49,51,53,55,57,59,61,63,65,67,69,-1,71,73,-1,-1,-1,-1,-1,-1,-1,-1,-1,-1,-1,-1,-1,-1,-1,-1,-1,-1,-1,-1,-1,-1,-1,-1,-1,-1,-1,-1,-1,-1,-1,-1],"loss_changes":[1.674866E11,8.384828E10,1.8532475E11,1.504453E10,2.8381155E10,7.2557527E9,7.043019E9,1.789182E9,8.193232E9,1.304209E10,1.3392146E10,0E0,0E0,3.0983782E8,1.8692424E9,3.3832755E8,2.343039E9,1.7049853E9,3.9431373E8,2.3752806E9,8.814893E8,1.0190295E10,4.374012E9,5.9385856E7,0E0,0E0,0E0,4.827648E7,1.3235917E8,5.6451994E8,1.8852762E8,8.813177E8,4.5734164E9,2.6579712E8,8.134656E7,9.550561E8,1.0475735E9,7.320412E8,4.2460006E8,1.03298995E9,0E0,3.048915E9,1.5902734E9,0E0,0E0,0E0,0E0,0E0,0E0,0E0,0E0,0E0,0E0,0E0,0E0,0E0,0E0,0E0,0E0,0E0,0E0,0E0,0E0,0E0,0E0,0E0,0E0,0E0,0E0,0E0,0E0,0E0,0E0,0E0,0E0],"parents":[2147483647,0,0,1,1,2,2,3,3,4,4,5,5,6,6,7,7,8,8,9,9,10,10,13,13,14,14,15,15,16,16,17,17,18,18,19,19,20,20,21,21,22,22,23,23,27,27,28,28,29,29,30,30,31,31,32,32,33,33,34,34,35,35,36,36,37,37,38,38,39,39,41,41,42,42],"right_children":[2,4,6,8,10,12,14,16,18,20,22,-1,-1,24,26,28,30,32,34,36,38,40,42,44,-1,-1,-1,46,48,50,52,54,56,58,60,62,64,66,68,70,-1,72,74,-1,-1,-1,-1,-1,-1,-1,-1,-1,-1,-1,-1,-1,-1,-1,-1,-1,-1,-1,-1,-1,-1,-1,-1,-1,-1,-1,-1,-1,-1,-1,-1],"split_conditions":[4.151256E0,1.1955199E0,8.5E0,6.893262E-1,1.9354507E0,3E0,3.4E1,4.1737258E-1,5E0,1E0,1.3976194E-1,4.667111E3,1.1079876E4,4.7000363E-1,8.9E0,2.6337022E-1,5E0,1E0,1.686399E0,1.6271558E0,7E0,9.1E0,1E0,8.6E0,5.5227655E2,2.7323606E3,8.719199E2,1.8777099E-1,5E0,5.29257E-1,1E0,8.401109E0,2E0,8.820818E-1,3E0,8.984819E0,9.1E0,1.7155681E0,1.9E1,1E0,2.7191426E3,2.710367E0,9.4E0,6.6046893E2,1.1892421E3,-3.0807095E2,-2.5297464E2,-1.9911983E2,-2.5222179E2,-1.4400996E2,-7.645201E1,-1.7047406E2,-2.2479048E2,-9.475678E0,-1.6284564E2,2.3819865E2,1.4804746E1,-1.5189983E2,-9.602066E1,-1.4145987E2,-2.1225835E2,1.9527893E2,8.683841E1,3.4892282E2,1.2572406E2,-3.359432E1,1.777841E2,-1.8945738E2,-5.4684517E1,1.0556445E3,2.0829356E2,4.8105917E2,8.321071E2,9.834564E1,6.1539185E2],"split_indices":[14,14,0,14,14,8,11,14,5,10,3,0,0,3,0,14,5,11,3,14,11,0,10,0,0,0,0,14,5,14,10,4,11,14,11,4,0,14,11,2,0,14,0,0,0,0,0,0,0,0,0,0,0,0,0,0,0,0,0,0,0,0,0,0,0,0,0,0,0,0,0,0,0,0,0],"split_type":[0,0,0,0,0,0,0,0,0,0,0,0,0,0,0,0,0,0,0,0,0,0,0,0,0,0,0,0,0,0,0,0,0,0,0,0,0,0,0,0,0,0,0,0,0,0,0,0,0,0,0,0,0,0,0,0,0,0,0,0,0,0,0,0,0,0,0,0,0,0,0,0,0,0,0],"sum_hessian":[9.707E3,9.662E3,4.5E1,6.717E3,2.945E3,8E0,3.7E1,3.567E3,3.15E3,2.391E3,5.54E2,3E0,5E0,2.5E1,1.2E1,1.37E3,2.197E3,2.031E3,1.119E3,1.734E3,6.57E2,2.6E1,5.28E2,1.5E1,1E1,9E0,3E0,4.11E2,9.59E2,1.256E3,9.41E2,4.29E2,1.602E3,8.71E2,2.48E2,1.332E3,4.02E2,4.18E2,2.39E2,1.5E1,1.1E1,4.22E2,1.06E2,6E0,9E0,7.6E1,3.35E2,8.01E2,1.58E2,5.69E2,6.87E2,2.31E2,7.1E2,2.92E2,1.37E2,2.76E2,1.326E3,4.12E2,4.59E2,6.4E1,1.84E2,1.079E3,2.53E2,3.38E2,6.4E1,3.73E2,4.5E1,1.34E2,1.05E2,8E0,7E0,3.44E2,7.8E1,8.9E1,1.7E1],"tree_param":{"num_deleted":"0","num_feature":"15","num_nodes":"75","size_leaf_vector":"1"}},{"base_weights":[9.22197E1,-2.1412569E2,6.3960016E4,-1.8910907E3,4.5086255E3,1.8223705E5,3.1151318E4,-2.9420503E3,9.058657E2,3.1017336E3,1.7775701E4,4.4920947E3,1.04500205E4,1.7047426E4,5.6962844E4,-3.8410562E3,-1.5494305E3,-1.7763688E3,3.650317E3,1.2197252E3,6.8159937E3,2.4889604E4,4.0083125E3,1.9909416E4,5.2386456E2,1.7803844E3,3.5090215E3,-4.695455E3,-3.4275305E3,-2.7197341E3,-4.49099E2,-1.080124E3,-4.0133076E3,6.3262764E3,-1.2262847E3,4.3390894E2,5.9939116E3,9.2385E3,1.0081273E3,2.2596305E4,2.5836404E3,5.950846E3,1.0632373E3,6.321631E2,1.1361688E3,-2.6801688E2,-2.1940144E2,-2.048153E2,-1.3902928E2,-1.7315831E2,-1.0387304E2,2.4232979E1,-1.10218056E2,-1.3839178E2,3.86191E1,-2.3214102E2,-1.8051773E2,2.0291338E2,6.8830634E2,3.011092E0,-9.939214E1,-3.675372E1,1.0954883E2,1.0503631E2,3.763868E2,4.0226224E2,1.01494006E3,3.6398575E2,-1.0569695E2,1.3686215E3,8.339305E2,2.4029436E2,5.379995E2,1.5856688E2,-3.3819984E1],"categories":[],"categories_nodes":[],"categories_segments":[],"categories_sizes":[],"default_left":[0,0,0,0,0,0,0,0,0,0,0,0,0,0,0,0,0,0,0,0,0,0,0,0,0,0,0,0,0,0,0,0,0,0,0,0,0,0,0,0,0,0,0,0,0,0,0,0,0,0,0,0,0,0,0,0,0,0,0,0,0,0,0,0,0,0,0,0,0,0,0,0,0,0,0],"id":18,"left_children":[1,3,5,7,9,11,13,15,17,19,21,-1,-1,23,25,27,29,31,33,35,37,39,41,43,-1,-1,-1,45,47,49,51,53,55,57,59,61,63,65,67,69,-1,71,73,-1,-1,-1,-1,-1,-1,-1,-1,-1,-1,-1,-1,-1,-1,-1,-1,-1,-1,-1,-1,-1,-1,-1,-1,-1,-1,-1,-1,-1,-1,-1,-1],"loss_changes":[1.926371E11,7.761551E10,1.7670726E11,2.1261046E10,4.787745E10,5.951029E9,1.2862554E10,6.5756733E9,1.4552336E10,1.6230078E10,2.3993442E10,0E0,0E0,2.802949E8,1.1704525E9,1.1123958E9,2.656637E9,1.5531215E9,1.2757206E10,5.786169E9,1.0979041E10,8.782709E9,4.799493E8,6.029261E7,0E0,0E0,0E0,1.8885018E8,9.214259E8,4.7029043E8,1.7465939E9,2.390781E9,4.335565E7,1.0591402E10,3.4009296E8,2.7251917E9,1.2859638E9,7.108657E9,4.5384417E9,3.8112788E9,0E0,2.291072E8,1.3050186E8,0E0,0E0,0E0,0E0,0E0,0E0,0E0,0E0,0E0,0E0,0E0,0E0,0E0,0E0,0E0,0E0,0E0,0E0,0E0,0E0,0E0,0E0,0E0,0E0,0E0,0E0,0E0,0E0,0E0,0E0,0E0,0E0],"parents":[2147483647,0,0,1,1,2,2,3,3,4,4,5,5,6,6,7,7,8,8,9,9,10,10,13,13,14,14,15,15,16,16,17,17,18,18,19,19,20,20,21,21,22,22,23,23,27,27,28,28,29,29,30,30,31,31,32,32,33,33,34,34,35,35,36,36,37,37,38,38,39,39,41,41,42,42],"right_children":[2,4,6,8,10,12,14,16,18,20,22,-1,-1,24,26,28,30,32,34,36,38,40,42,44,-1,-1,-1,46,48,50,52,54,56,58,60,62,64,66,68,70,-1,72,74,-1,-1,-1,-1,-1,-1,-1,-1,-1,-1,-1,-1,-1,-1,-1,-1,-1,-1,-1,-1,-1,-1,-1,-1,-1,-1,-1,-1,-1,-1,-1,-1],"split_conditions":[4.151256E0,1.2677875E0,8.5E0,1.6666672E4,2.3309557E4,5E0,1.3515845E4,8.054354E-1,6.893262E-1,1.4862044E4,5E0,4.4920947E3,1.04500205E4,1.0296195E0,4.4E1,4.2752412E-1,1.0915879E4,1E0,5E0,2.1452708E0,5E0,9.2E0,1E0,8.6E0,5.2386456E2,1.7803844E3,3.5090215E3,2.818008E-1,1.0915879E4,9.755667E3,5E0,4.4351614E-1,5.1295567E-1,3.0881756E4,2.1674785E4,8E0,9.755667E3,2.2125132E0,1E0,3.1E1,2.5836404E3,1.6919953E0,1.0986123E0,6.321631E2,1.1361688E3,-2.6801688E2,-2.1940144E2,-2.048153E2,-1.3902928E2,-1.7315831E2,-1.0387304E2,2.4232979E1,-1.10218056E2,-1.3839178E2,3.86191E1,-2.3214102E2,-1.8051773E2,2.0291338E2,6.8830634E2,3.011092E0,-9.939214E1,-3.675372E1,1.0954883E2,1.0503631E2,3.763868E2,4.0226224E2,1.01494006E3,3.6398575E2,-1.0569695E2,1.3686215E3,8.339305E2,2.4029436E2,5.379995E2,1.5856688E2,-3.3819984E1],"split_indices":[14,14,0,13,13,11,13,14,14,13,5,0,0,3,11,14,13,10,5,14,5,0,10,0,0,0,0,14,13,13,5,14,14,13,13,11,13,14,11,11,0,14,3,0,0,0,0,0,0,0,0,0,0,0,0,0,0,0,0,0,0,0,0,0,0,0,0,0,0,0,0,0,0,0,0],"split_type":[0,0,0,0,0,0,0,0,0,0,0,0,0,0,0,0,0,0,0,0,0,0,0,0,0,0,0,0,0,0,0,0,0,0,0,0,0,0,0,0,0,0,0,0,0,0,0,0,0,0,0,0,0,0,0,0,0,0,0,0,0,0,0,0,0,0,0,0,0,0,0,0,0,0,0],"sum_hessian":[9.844E3,9.798E3,4.6E1,7.231E3,2.567E3,9E0,3.7E1,5.256E3,1.975E3,2.322E3,2.45E2,3E0,6E0,2.5E1,1.2E1,3.193E3,2.063E3,9.99E2,9.76E2,1.542E3,7.8E2,1.61E2,8.4E1,1.6E1,9E0,6E0,6E0,1.038E3,2.155E3,9.99E2,1.064E3,7.63E2,2.36E2,6.3E2,3.46E2,1.325E3,2.17E2,5.5E2,2.3E2,1.5E2,1.1E1,5E1,3.4E1,6E0,1E1,3.23E2,7.15E2,1.057E3,1.098E3,4.61E2,5.38E2,6.95E2,3.69E2,3.99E2,3.64E2,8.8E1,1.48E2,4.84E2,1.46E2,1.29E2,2.17E2,7.96E2,5.29E2,6.2E1,1.55E2,4.98E2,5.2E1,7.6E1,1.54E2,8.1E1,6.9E1,4.2E1,8E0,1.5E1,1.9E1],"tree_param":{"num_deleted":"0","num_feature":"15","num_nodes":"75","size_leaf_vector":"1"}},{"base_weights":[1.164556E1,-2.278548E2,5.6691168E4,-2.0769736E3,3.5871921E3,8.962198E3,3.0560861E4,-3.2443896E3,-6.6899304E2,1.953641E3,7.805605E3,1.6247384E4,4.8562332E4,-4.375688E3,-2.8742021E3,3.6045312E2,-2.5709966E3,3.313684E3,-1.3226974E3,6.4884863E3,1.682638E4,1.942942E4,4.9229172E2,2.9535325E3,1.1477366E3,-4.8667476E3,-3.9759143E3,-2.1801208E3,-3.906894E3,-1.1315363E3,7.816678E2,-2.2714941E3,-3.545199E3,4.7445664E3,2.7654043E3,-6.807942E2,-2.4148108E3,7.5919766E3,1.310299E3,4.0136E4,1.4147632E4,5.64732E2,1.0894955E3,-2.837003E2,-2.3167029E2,-2.0184178E2,-8.888058E1,-1.4020393E2,-6.71307E1,-1.60895E2,-2.0561028E2,-1.5490523E1,-1.4937584E2,2.0138103E2,5.234491E0,-1.2670934E2,-6.0326324E1,-1.2638818E2,-1.95515E2,1.2899612E2,4.1727496E2,8.114978E1,2.1203166E2,-5.665161E1,9.889827E1,-1.7962926E2,-5.844864E1,4.5572247E2,2.7031906E2,1.9288078E2,-1.5304068E2,8.5092053E2,2.3338894E3,4.433978E2,9.1630756E2],"categories":[],"categories_nodes":[],"categories_segments":[],"categories_sizes":[],"default_left":[0,0,0,0,0,0,0,0,0,0,0,0,0,0,0,0,0,0,0,0,0,0,0,0,0,0,0,0,0,0,0,0,0,0,0,0,0,0,0,0,0,0,0,0,0,0,0,0,0,0,0,0,0,0,0,0,0,0,0,0,0,0,0,0,0,0,0,0,0,0,0,0,0,0,0],"id":19,"left_children":[1,3,5,7,9,-1,11,13,15,17,19,21,23,25,27,29,31,33,35,37,39,41,-1,-1,-1,43,45,47,49,51,53,55,57,59,61,63,65,67,69,71,73,-1,-1,-1,-1,-1,-1,-1,-1,-1,-1,-1,-1,-1,-1,-1,-1,-1,-1,-1,-1,-1,-1,-1,-1,-1,-1,-1,-1,-1,-1,-1,-1,-1,-1],"loss_changes":[1.3227187E11,6.845702E10,1.2581813E11,1.0741045E10,2.1815419E10,0E0,8.22921E9,1.4837678E9,5.8044687E9,1.0186255E10,1.0394001E10,2.364672E8,2.6804306E9,1.532078E8,1.9231826E9,1.2100179E9,2.9568512E8,1.253886E9,4.6874765E8,4.40703E9,6.42551E9,3.514368E6,0E0,0E0,0E0,4.717261E7,5.8445824E7,8.3966106E8,1.3982413E8,6.4571955E8,3.2979333E9,2.2046976E8,8.038144E7,3.4549207E9,1.9649352E9,5.120553E8,3.5969434E8,2.0703478E9,1.5372485E9,8.691446E8,2.0877271E9,0E0,0E0,0E0,0E0,0E0,0E0,0E0,0E0,0E0,0E0,0E0,0E0,0E0,0E0,0E0,0E0,0E0,0E0,0E0,0E0,0E0,0E0,0E0,0E0,0E0,0E0,0E0,0E0,0E0,0E0,0E0,0E0,0E0,0E0],"parents":[2147483647,0,0,1,1,2,2,3,3,4,4,6,6,7,7,8,8,9,9,10,10,11,11,12,12,13,13,14,14,15,15,16,16,17,17,18,18,19,19,20,20,21,21,25,25,26,26,27,27,28,28,29,29,30,30,31,31,32,32,33,33,34,34,35,35,36,36,37,37,38,38,39,39,40,40],"right_children":[2,4,6,8,10,-1,12,14,16,18,20,22,24,26,28,30,32,34,36,38,40,42,-1,-1,-1,44,46,48,50,52,54,56,58,60,62,64,66,68,70,72,74,-1,-1,-1,-1,-1,-1,-1,-1,-1,-1,-1,-1,-1,-1,-1,-1,-1,-1,-1,-1,-1,-1,-1,-1,-1,-1,-1,-1,-1,-1,-1,-1,-1,-1],"split_conditions":[4.151256E0,1.1626889E0,8.5E0,6.893262E-1,1.735663E0,8.962198E3,3.4E1,3.455856E-1,4E0,1E0,2.710367E0,4.7000363E-1,8.7E0,2.5739506E-1,4E0,1E0,1.686399E0,2E0,7E0,1E0,1.3976194E-1,8.6E0,4.9229172E2,2.9535325E3,1.1477366E3,1.8777099E-1,5E0,5.2638346E-1,1E0,8.401109E0,2E0,1.0602415E0,3E0,1E0,3.5E1,6E0,1.9E1,8.203852E0,7E0,9.1E0,5.877867E-1,5.64732E2,1.0894955E3,-2.837003E2,-2.3167029E2,-2.0184178E2,-8.888058E1,-1.4020393E2,-6.71307E1,-1.60895E2,-2.0561028E2,-1.5490523E1,-1.4937584E2,2.0138103E2,5.234491E0,-1.2670934E2,-6.0326324E1,-1.2638818E2,-1.95515E2,1.2899612E2,4.1727496E2,8.114978E1,2.1203166E2,-5.665161E1,9.889827E1,-1.7962926E2,-5.844864E1,4.5572247E2,2.7031906E2,1.9288078E2,-1.5304068E2,8.5092053E2,2.3338894E3,4.433978E2,9.1630756E2],"split_indices":[14,14,0,14,14,0,11,14,6,10,14,3,0,14,6,11,3,11,11,10,3,0,0,0,0,14,1,14,10,4,11,14,11,11,11,11,11,4,11,0,3,0,0,0,0,0,0,0,0,0,0,0,0,0,0,0,0,0,0,0,0,0,0,0,0,0,0,0,0,0,0,0,0,0,0],"split_type":[0,0,0,0,0,0,0,0,0,0,0,0,0,0,0,0,0,0,0,0,0,0,0,0,0,0,0,0,0,0,0,0,0,0,0,0,0,0,0,0,0,0,0,0,0,0,0,0,0,0,0,0,0,0,0,0,0,0,0,0,0,0,0,0,0,0,0,0,0,0,0,0,0,0,0],"sum_hessian":[9.742E3,9.702E3,4E1,6.535E3,3.167E3,6E0,3.4E1,3.572E3,2.963E3,2.284E3,8.83E2,2E1,1.4E1,8.78E2,2.694E3,1.923E3,1.04E3,1.614E3,6.7E2,7.72E2,1.11E2,1.2E1,8E0,9E0,5E0,3.89E2,4.89E2,1.613E3,1.081E3,4.23E2,1.5E3,7.98E2,2.42E2,4.45E2,1.169E3,4.23E2,2.47E2,6.36E2,1.36E2,1E1,1.01E2,4E0,8E0,8.2E1,3.07E2,4.75E2,1.4E1,9.23E2,6.9E2,2.52E2,8.29E2,2.94E2,1.29E2,2.58E2,1.242E3,6.39E2,1.59E2,6.6E1,1.76E2,2.79E2,1.66E2,6.6E2,5.09E2,3.62E2,6.1E1,1.26E2,1.21E2,3.73E2,2.63E2,8.6E1,5E1,3E0,7E0,4.6E1,5.5E1],"tree_param":{"num_deleted":"0","num_feature":"15","num_nodes":"75","size_leaf_vector":"1"}},{"base_weights":[1.80127E1,-2.9813632E2,3.769807E4,-1.9626384E3,3.1801025E3,8.1704336E3,2.35983E4,-3.0680627E3,-6.1927026E2,4.9908213E3,-6.1351997E1,1.872553E4,3.4264598E4,-3.9755703E3,-2.622278E3,3.1786694E2,-2.394533E3,3.613684E3,9.299347E3,-3.031649E2,6.838291E3,2.1150571E3,1.5937699E4,1.1015375E3,2.4743918E3,-4.628711E3,-3.6514023E3,-1.8798927E3,-3.6869414E3,-1.1950564E3,7.4175616E2,-2.1048481E3,-3.4680293E3,3.1641733E3,5.6479014E3,8.199757E3,1.6534691E4,-7.7954065E2,1.3142682E3,-1.901803E2,7.859131E3,4.8272906E2,1.8175098E4,-2.7058823E2,-2.2002205E2,-1.18196125E1,-1.8385852E2,-1.2663456E2,-6.230951E1,-1.7431561E2,-2.1158276E2,-1.1915326E2,-3.357514E1,1.8085365E2,8.122134E0,-1.1885242E2,-5.3320385E1,-1.307371E2,-1.9022458E2,1.3142557E2,2.1343022E2,3.287298E2,1.00230705E2,4.6344345E2,2.5741516E2,1.6023721E3,6.847804E2,-6.835962E1,1.259435E1,1.8961006E2,9.539371E0,5.4379846E2,2.2028345E2,4.6299252E2,9.676154E2],"categories":[],"categories_nodes":[],"categories_segments":[],"categories_sizes":[],"default_left":[0,0,0,0,0,0,0,0,0,0,0,0,0,0,0,0,0,0,0,0,0,0,0,0,0,0,0,0,0,0,0,0,0,0,0,0,0,0,0,0,0,0,0,0,0,0,0,0,0,0,0,0,0,0,0,0,0,0,0,0,0,0,0,0,0,0,0,0,0,0,0,0,0,0,0],"id":20,"left_children":[1,3,5,7,9,-1,11,13,15,17,19,21,23,25,27,29,31,33,35,37,39,-1,41,-1,-1,43,45,47,49,51,53,55,57,59,61,63,65,67,69,-1,71,-1,73,-1,-1,-1,-1,-1,-1,-1,-1,-1,-1,-1,-1,-1,-1,-1,-1,-1,-1,-1,-1,-1,-1,-1,-1,-1,-1,-1,-1,-1,-1,-1,-1],"loss_changes":[1.1596765E11,5.5898423E10,1.3971554E11,9.695097E9,1.834206E10,0E0,3.204481E9,1.4386831E9,4.906909E9,1.1862921E10,1.8723743E9,2.8092252E9,3.0069944E9,2.3251149E8,1.8939566E9,1.2392596E9,3.0958387E8,1.3729341E9,3.7230346E9,8.3625286E8,4.427127E8,0E0,5.1335885E8,0E0,0E0,4.536064E7,6.882406E7,5.838561E8,9.311027E7,2.6149965E8,2.5129682E9,2.250089E8,5.177779E7,7.270984E8,9.119027E8,1.3322527E9,2.3357297E9,5.0827318E8,6.869019E8,0E0,3.167314E8,0E0,1.881262E8,0E0,0E0,0E0,0E0,0E0,0E0,0E0,0E0,0E0,0E0,0E0,0E0,0E0,0E0,0E0,0E0,0E0,0E0,0E0,0E0,0E0,0E0,0E0,0E0,0E0,0E0,0E0,0E0,0E0,0E0,0E0,0E0],"parents":[2147483647,0,0,1,1,2,2,3,3,4,4,6,6,7,7,8,8,9,9,10,10,11,11,12,12,13,13,14,14,15,15,16,16,17,17,18,18,19,19,20,20,22,22,25,25,26,26,27,27,28,28,29,29,30,30,31,31,32,32,33,33,34,34,35,35,36,36,37,37,38,38,40,40,42,42],"right_children":[2,4,6,8,10,-1,12,14,16,18,20,22,24,26,28,30,32,34,36,38,40,-1,42,-1,-1,44,46,48,50,52,54,56,58,60,62,64,66,68,70,-1,72,-1,74,-1,-1,-1,-1,-1,-1,-1,-1,-1,-1,-1,-1,-1,-1,-1,-1,-1,-1,-1,-1,-1,-1,-1,-1,-1,-1,-1,-1,-1,-1,-1,-1],"split_conditions":[3.2929676E0,1.1626889E0,8.5E0,6.893262E-1,5E0,8.1704336E3,1E0,3.9459482E-1,5E0,1.865966E0,2.5751157E0,1.3976194E-1,3.1E1,2.5739506E-1,5E0,1E0,1.686399E0,1.6271558E0,2.710367E0,1.64295E0,1.8232156E-1,2.1150571E3,4E0,1.1015375E3,2.4743918E3,1.8777099E-1,9.531018E-2,5.2638346E-1,1.704748E0,8.2897085E-1,2E0,1.0602415E0,4E0,2.9E1,9.1E0,1E0,1.3976194E-1,8E0,1E0,-1.901803E2,1.5E1,4.8272906E2,1E0,-2.7058823E2,-2.2002205E2,-1.18196125E1,-1.8385852E2,-1.2663456E2,-6.230951E1,-1.7431561E2,-2.1158276E2,-1.1915326E2,